time,vx,vy,vz,wx,wy,wz,x,y,z,phi,theta,psi,vxdot,vydot,vzdot,wxdot,wydot,wzdot,xdot,ydot,zdot,phidot,thetadot,psidot,fx,fy,fz,tauz,x_error,y_error,z_error,psi_error,solve_time,metadata
0.0,0.0845794606109408,0.1657135369916234,-0.030430871580045638,0.0006399540590645875,-0.0007175242480421133,0.002210750385859484,-3.4118964672088623,0.24969853460788727,-1.4274380207061768,-0.04259558622505066,-0.03686597745544207,1.2336967962513903,4.4887066602434516,33.69358609340753,4.254786451929083,0.0006399540590645875,-0.0007175242480421133,0.002210750385859484,-0.12660967724258865,0.13539954244068167,-0.0343169488739109,-0.3767985572835955,-0.3972276688543288,-0.15054361617131487,0.0,0.0,0.0,0.0,0.0
0.05,-0.014254706995761831,0.011991066084858568,-0.002938878790465975,0.0009308422677303091,-0.0007369167952864946,0.0021331801968819584,-3.412489175796509,0.24901056289672852,-1.4278531074523926,-0.042417510555439186,-0.03524503718024152,1.2365873376371344,1.5089369257717637,2.382949750781855,-0.2295850198563514,0.0009308422677303091,-0.0007369167952864946,0.0021331801968819584,-0.015832822453820936,-0.009454047498467361,-0.003944878321827439,0.002932852970082076,-0.01863245733351039,0.007092429395732993,0.0,0.0,0.0,0.0,0.0
0.1,0.054201263195238,-0.024965432458886695,-0.01721909116662772,0.0009308422677303091,-0.0007369167952864946,0.0021331801968819584,-3.412374973297119,0.2493196278810501,-1.4280205965042114,-0.04352074357044611,-0.031195507667599598,1.2428434541164348,6.797904963576745,-2.4862281376255453,-0.8455673406076321,0.0009308422677303091,-0.0007369167952864946,0.0021331801968819584,0.0419336706014615,0.0434882658797077,-0.014418212478920741,-0.006492878347342104,0.14408247931059417,0.1420977361077268,0.0,0.0,0.0,0.0,0.0
0.15000000000000002,0.007442753199617203,0.01050221586795359,-0.012137819928200233,0.0009308422677303091,-0.0007369167952864946,0.0021331801968819584,-3.412742853164673,0.24947109818458557,-1.4284428358078003,-0.0437786571150518,-0.028879707727045068,1.2472149953816327,-1.7949894654643994,1.2418538733459596,-1.5295393911769946,0.0009308422677303091,-0.0007369167952864946,0.0021331801968819584,-0.006962903039408298,0.010565338610886398,-0.012365653530567433,-0.02302180342805676,0.057699318038829,0.015949084597735422,0.0,0.0,0.0,0.0,0.0
0.2,-0.02789614625345282,-0.01110685117028282,-0.0010294424934422515,0.0009308422677303091,-0.0007369167952864946,0.0021331801968819584,-3.41290020942688,0.2485448122024536,-1.428999900817871,-0.042803005115256365,-0.02637005395446579,1.2497863281815107,8.283243851944436,3.394590473419052,1.4379151491800806,0.0009308422677303091,-0.0007369167952864946,0.0021331801968819584,0.001777356478464364,-0.029963267966111738,-0.001288583446886664,0.01847790472377852,0.04099814389912379,0.09158807985287731,0.0,0.0,0.0,0.0,0.0
0.25,-0.0016035028076054367,-0.011547487503213641,-0.0077248684419491155,0.0009308422677303091,-0.0007369167952864946,0.0021331801968819584,-3.412652015686035,0.2482125461101532,-1.4294596910476685,-0.04301286728402243,-0.02438252667881957,1.2504957051216925,1.371942407740244,1.2834379893185055,-1.6299819123434296,0.0009308422677303091,-0.0007369167952864946,0.0021331801968819584,0.01081604189793072,-0.005091367090769362,-0.007258133378874563,-0.031942397282551806,0.08454875319716772,0.046554156534092346,0.0,0.0,0.0,0.0,0.0
0.30000000000000004,0.03466358470109609,-0.04620401744773888,-0.023480436398040046,0.0009308422677303091,-0.0007369167952864946,0.0021331801968819584,-3.4128668308258057,0.24912215769290924,-1.4301131963729858,-0.04732728611283532,-0.023025785303889323,1.244824073954181,2.747478155360783,-5.940222497895875,-1.6850808930185595,0.0009308422677303091,-0.0007369167952864946,0.0021331801968819584,0.05602843301489564,0.018158305790736632,-0.02046452664463259,-0.11015324907240491,0.21069659006495525,-0.059995716610494076,0.0,0.0,0.0,0.0,0.0
0.35000000000000003,-0.009723233994580267,-0.01580551958463141,-0.01064448323431649,0.0009308422677303091,-0.0007369167952864946,0.0021331801968819584,-3.4120161533355713,0.24876315891742706,-1.4305799007415771,-0.046867763825614084,-0.018937841521281973,1.2378356227954086,0.317678266540403,-3.6356774441836786,-2.3728287008122506,0.0009308422677303091,-0.0007369167952864946,0.0021331801968819584,0.012276199918353065,-0.014333775587566338,-0.01007464862658191,-0.012326902772525404,0.04559541509359151,-0.08325277059810161,0.0,0.0,0.0,0.0,0.0
0.4,-0.10743325118522862,0.19427579796147773,-0.0001064490735085861,0.0009308422677303091,-0.0007369167952864946,0.0021331801968819584,-3.4131338596343994,0.2495833933353424,-1.431888461112976,-0.0494470674657328,-0.02120912460257629,1.2271742479435517,-17.65874237468552,25.907874507185028,3.034817292693186,0.0009308422677303091,-0.0007369167952864946,0.0021331801968819584,-0.2188067325148466,-0.03556647896858365,-0.011984984153358564,0.022824578383290575,-0.6426671081503403,-0.8469730753070678,0.0,0.0,0.0,0.0,0.0
0.45,-0.09957536773779928,-0.052598203259704476,-0.0008596870525942891,0.0009308422677303091,-0.0007369167952864946,0.0021331801968819584,-3.410429000854492,0.24931199848651886,-1.432812213897705,-0.048696412355070606,-0.011350364511994115,1.2189122435394593,-17.70916278981402,-11.12511937244933,1.125656010437538,0.0009308422677303091,-0.0007369167952864946,0.0021331801968819584,0.015031205133464209,-0.11160779688827684,0.0005713615986404524,0.21270742234395035,-0.05036508183644292,-0.2131905866210345,0.0,0.0,0.0,0.0,0.0
0.5,-0.0037203471365553327,-0.11379506393486191,-0.03496187487472809,0.0009308422677303091,-0.0007369167952864946,0.0021331801968819584,-3.4089694023132324,0.2504262626171112,-1.4341461658477783,-0.051812501911625564,-0.0052556374812697815,1.208845480968801,1.211884403035755,-12.315729465102077,-0.5564973257336878,0.0009308422677303091,-0.0007369167952864946,0.0021331801968819584,0.106709208543827,-0.04421844072203019,-0.029040739755975067,0.08888010732033204,0.2247528257637557,-0.304875175856489,0.0,0.0,0.0,0.0,0.0
0.55,0.10035337669941,0.01946664962068258,-0.06074289191143777,0.0009308422677303091,-0.0007369167952864946,0.0021331801968819584,-3.4079816341400146,0.25185519456863403,-1.4361610412597656,-0.05491767132138925,-0.0005538204925574775,1.1939528379545763,15.543980237644519,3.271496756273466,-3.2938040298318825,0.0009308422677303091,-0.0007369167952864946,0.0021331801968819584,0.021968162083936323,0.09926917510853835,-0.06166425470332851,-0.23330235942874736,0.18148788066284377,-0.4070338011848944,0.0,0.0,0.0,0.0,0.0
0.6000000000000001,0.014575335889242029,-0.07931478849778238,-0.05906889010615358,0.0009308422677303091,-0.0007369167952864946,0.0021331801968819584,-3.4066321849823,0.2523411810398102,-1.438176155090332,-0.054689471464192785,0.0040579150418451615,1.1786909326748507,-9.358542961664327,-18.901036061818196,-4.342222374819718,0.0009308422677303091,-0.0007369167952864946,0.0021331801968819584,0.08165448386521662,-0.018233345218993283,-0.054703749925714626,-0.04463723706943925,0.20168823381412007,-0.19684475758266,0.0,0.0,0.0,0.0,0.0
0.65,-0.0105107846178351,0.003677630120996725,-0.02628791858681706,0.0009308422677303091,-0.0007369167952864946,0.0021331801968819584,-3.405294179916382,0.2535094618797302,-1.4400441646575928,-0.05610940074574611,0.0094552384027069,1.1608170077125903,-1.340516250223788,5.524390805205715,1.5186040007822394,0.0009308422677303091,-0.0007369167952864946,0.0021331801968819584,-0.0063045015319349515,-0.008992752769267028,-0.02635222719773745,-0.027976287534908637,0.03428319634144479,-0.5297865682204072,0.0,0.0,0.0,0.0,0.0
0.7000000000000001,-0.009983951060829794,0.026090783114142715,-0.012382534095923551,0.0009308422677303091,-0.0007369167952864946,0.0021331801968819584,-3.4035160541534424,0.2541350722312927,-1.4424607753753662,-0.057463812076712806,0.011643386617539164,1.141159365627372,-5.386652855437244,21.22006279231706,6.236942649242247,0.0009308422677303091,-0.0007369167952864946,0.0021331801968819584,-0.027259562143283074,0.0013310333077774937,-0.013743362580571883,-0.024856699591003104,-0.14808267682489704,-0.7526126852282364,0.0,0.0,0.0,0.0,0.0
0.75,0.13687405366917596,-0.2548213559813317,-0.12304047465732089,0.0009308422677303091,-0.0007369167952864946,0.0021331801968819584,-3.400463819503784,0.2552686929702759,-1.445492148399353,-0.056367237350774424,0.01767390424299209,1.1220566141899182,19.582676001524767,-33.63808985439837,-7.07553183570802,0.0009308422677303091,-0.0007369167952864946,0.0021331801968819584,0.29401256438502993,0.008195135022478935,-0.11089111858754876,0.276553243800122,0.7584693932811349,0.03957098593342143,0.0,0.0,0.0,0.0,0.0
0.8,0.12885957242322138,-0.03975047482422535,-0.10520599118683048,0.0009308422677303091,-0.0007369167952864946,0.0021331801968819584,-3.399757146835327,0.25698402523994446,-1.4480406045913696,-0.06107749590163403,0.015096041768423607,1.0956152809133712,9.832919916487572,-7.798538982944927,-7.030537492663134,0.0009308422677303091,-0.0007369167952864946,0.0021331801968819584,0.09922887437078291,0.092103325479276,-0.10451697547392096,-0.14722485280150557,0.2895112727870759,-0.28549473017814825,0.0,0.0,0.0,0.0,0.0
0.8500000000000001,0.07048336078239564,0.008417068668790719,-0.05069660423976689,0.0009308422677303091,-0.0007369167952864946,0.0021331801968819584,-3.3986542224884033,0.2579101026058197,-1.4514453411102295,-0.06116284904097924,0.011913547526435364,1.0690736583356095,17.306444520040287,8.711102350432531,5.065478292355323,0.0009308422677303091,-0.0007369167952864946,0.0021331801968819584,0.028953743222978428,0.06380854193101858,-0.05195235898027454,-0.2075193711017296,0.05863403799191177,-0.5726236012818098,0.0,0.0,0.0,0.0,0.0
0.9,0.026014661142615924,0.03355978759000734,-0.07877249873267807,0.0009308422677303091,-0.0007369167952864946,0.0021331801968819584,-3.3964734077453613,0.25951385498046875,-1.455112099647522,-0.06299769028176261,0.009567234996265661,1.0420864654838269,-5.538166843240374,13.041115884314808,2.695785430847793,0.0009308422677303091,-0.0007369167952864946,0.0021331801968819584,-0.011905811799982362,0.036187788458711824,-0.08097421877296646,-0.02349035980786989,-0.13576563124325866,-0.5708648111305109,0.0,0.0,0.0,0.0,0.0
0.9500000000000001,0.14703915876203072,-0.05623386293105518,-0.11550277161312858,0.0009308422677303091,-0.0007369167952864946,0.0021331801968819584,-3.393800973892212,0.26185142993927,-1.45933997631073,-0.06401619328762598,0.008634162047340022,1.0123370805283844,2.2998321515180864,-7.288801366603386,-6.217347833431551,0.0009308422677303091,-0.0007369167952864946,0.0021331801968819584,0.13125845737483086,0.09022609382047812,-0.11293414524131709,-0.07745864120417896,0.20052968595245935,-0.31204450134936523,0.0,0.0,0.0,0.0,0.0
1.0,0.11946410150290394,0.029606816742556438,-0.12009469737929328,0.0009308422677303091,-0.0007369167952864946,0.0021331801968819584,-3.3924529552459717,0.2640717625617981,-1.463501214981079,-0.06641867222654785,0.0035252460025843035,0.9794426523403237,9.568184138705822,-0.30532476685121174,-1.500412112739844,0.0009308422677303091,-0.0007369167952864946,0.0021331801968819584,0.04845186044436513,0.11084589988400106,-0.12221528211534458,-0.2347642491276566,-0.0028440289823225646,-0.6101682234029947,0.0,0.0,0.0,0.0,0.0
1.05,0.17250442555209716,-0.04719684857634329,-0.12098717094744557,0.0009308422677303091,-0.0007369167952864946,0.0021331801968819584,-3.3897557258605957,0.26546692848205566,-1.4681422710418701,-0.06362212046203242,0.001118449162740509,0.945730946456294,9.807313696787984,-6.84715562985143,-4.790989439231964,0.0009308422677303091,-0.0007369167952864946,0.0021331801968819584,0.14529741016791856,0.10771874365592646,-0.11793451466024767,-0.07438881689787563,0.2545854983099525,-0.4973013910821822,0.0,0.0,0.0,0.0,0.0
1.1,0.08150217728774276,0.06893923354987724,-0.09229525375461652,0.0009308422677303091,-0.0007369167952864946,0.0021331801968819584,-3.387341260910034,0.2673160135746002,-1.4727489948272705,-0.0627464460315017,-0.0014939376121574366,0.9123341723363882,1.1231066446791031,16.097750363889585,0.7164563366108163,0.0009308422677303091,-0.0007369167952864946,0.0021331801968819584,0.0001177440244907571,0.10313640645237254,-0.0963146120334393,-0.17889185978327135,-0.13225622137376958,-0.9493773678241125,0.0,0.0,0.0,0.0,0.0
1.1500000000000001,0.08881167161941071,0.007989908184724006,-0.08251823267941918,0.0009308422677303091,-0.0007369167952864946,0.0021331801968819584,-3.3847198486328125,0.2693060636520386,-1.4779245853424072,-0.06178610057684342,-0.005064189619867765,0.8751597718734248,11.311642108444074,4.617757314683095,1.399180388228172,0.0009308422677303091,-0.0007369167952864946,0.0021331801968819584,0.054974904044877475,0.07034248597578978,-0.08240330676114556,-0.10637082824022115,-0.07458418038359409,-0.6867600124448116,0.0,0.0,0.0,0.0,0.0
1.2000000000000002,0.04604104956368292,-0.13348181775220977,-0.08924764920796112,0.0009308422677303091,-0.0007369167952864946,0.0021331801968819584,-3.3813023567199707,0.271180659532547,-1.4834500551223755,-0.059538723009545436,-0.005012281908349792,0.8384577956560291,-9.83937460114027,-18.51760663773142,3.241882700083,0.0009308422677303091,-0.0007369167952864946,0.0021331801968819584,0.13408699780428462,-0.058101151266987124,-0.08091507922378494,0.2485619818915658,0.16381819577943807,-0.5958625521947678,0.0,0.0,0.0,0.0,0.0
1.25,0.10370593115338629,0.02121709028326259,-0.13077887085749731,0.0009308422677303091,-0.0007369167952864946,0.0021331801968819584,-3.3791136741638184,0.2739354968070984,-1.4895780086517334,-0.05931082980184099,-0.009521728648824723,0.7961171037629455,2.064235150020386,3.904057351570991,-0.39005561528010707,0.0009308422677303091,-0.0007369167952864946,0.0021331801968819584,0.0638194465538714,0.08439901582576471,-0.13081315877403482,-0.14658828299889898,-0.03354751119551211,-0.9483963033074476,0.0,0.0,0.0,0.0,0.0
1.3,0.09424223069514671,-0.08433587315439,-0.10071062013414234,0.0009308422677303091,-0.0007369167952864946,0.0021331801968819584,-3.3768274784088135,0.2759765386581421,-1.4953097105026245,-0.058169510634030086,-0.013499126734908051,0.7522427898453152,3.3270832051867387,-23.0298990250683,5.642458955360216,0.0009308422677303091,-0.0007369167952864946,0.0021331801968819584,0.13127606338615513,-0.00047956630525437864,-0.094356408117876,0.02581583942776799,0.15079337299848272,-0.6131441402585889,0.0,0.0,0.0,0.0,0.0
1.35,0.034205599518681205,0.025659401943702257,-0.1034002340694125,0.0009308422677303091,-0.0007369167952864946,0.0021331801968819584,-3.373662233352661,0.277915894985199,-1.5011500120162964,-0.054818174704458045,-0.015525677609529831,0.7091109104351103,-5.527340400131787,4.59008681626964,1.1678932626328355,0.0009308422677303091,-0.0007369167952864946,0.0021331801968819584,0.014195767504226665,0.038473590625546554,-0.10410715326764998,0.06896652005628487,-0.15285893199048423,-0.9961558186222103,0.0,0.0,0.0,0.0,0.0
1.4000000000000001,0.10067876176190949,-0.1627789264355065,-0.06221025331278367,0.0009308422677303091,-0.0007369167952864946,0.0021331801968819584,-3.369886636734009,0.2793119549751282,-1.506392240524292,-0.0508430999424454,-0.01592158837558766,0.6642862234958837,-2.222381875287041,-25.03758077357297,7.028281065417562,0.0009308422677303091,-0.0007369167952864946,0.0021331801968819584,0.18210741389375365,-0.06789988324576766,-0.05224751897256275,0.22583755987462023,0.3278751995871186,-0.7099767760584056,0.0,0.0,0.0,0.0,0.0
1.4500000000000002,0.06834467572569922,-0.016325436716384523,-0.13582211764117963,0.0009308422677303091,-0.0007369167952864946,0.0021331801968819584,-3.3669075965881348,0.2813248932361603,-1.5117309093475342,-0.04531062487823645,-0.015271322053114655,0.6160945784665959,-5.489531076126948,6.079754458378185,-6.429450698728462,0.0009308422677303091,-0.0007369167952864946,0.0021331801968819584,0.07043322505236953,0.022348128358480827,-0.13388384589696106,0.20916372697644664,-0.00669799589295058,-1.0230055894969468,0.0,0.0,0.0,0.0,0.0
1.5,0.18068786456658623,-0.02661640370307594,-0.08807416688437843,0.0009308422677303091,-0.0007369167952864946,0.0021331801968819584,-3.363415479660034,0.2835114598274231,-1.5161281824111938,-0.04218348400058458,-0.013438267946380034,0.566125156789127,24.882865289287302,-14.510449849890577,-3.9063066339427612,0.0009308422677303091,-0.0007369167952864946,0.0021331801968819584,0.16972503957319576,0.071953596763792,-0.08443747435070645,0.02693292278837494,0.48035277906938395,-0.9907024552165578,0.0,0.0,0.0,0.0,0.0
1.55,0.12822657550637623,0.08427462405323385,-0.1311972271143117,0.0009308422677303091,-0.0007369167952864946,0.0021331801968819584,-3.358630418777466,0.28454333543777466,-1.5214015245437622,-0.03345201119600505,-0.008050550464544726,0.5176635611732348,8.753333703409398,22.857319319746075,-4.804278559460096,0.0009308422677303091,-0.0007369167952864946,0.0021331801968819584,0.07285078472710237,0.13336334621691262,-0.13290583274771609,-0.0659489542365089,0.08251585054246115,-0.9882034188439481,0.0,0.0,0.0,0.0,0.0
1.6,0.06339205263251028,0.0030950531376871516,-0.09188082148093256,0.0009308422677303091,-0.0007369167952864946,0.0021331801968819584,-3.354426383972168,0.28587016463279724,-1.52547025680542,-0.029210310358409597,-0.00295259678891302,0.4627014827241709,-4.885330577656771,-2.44171837356264,-2.9015226914132586,0.0009308422677303091,-0.0007369167952864946,0.0021331801968819584,0.05678590063192069,0.02878427734941156,-0.09174444895356253,0.07093104933295609,-0.003715095029653278,-1.2310345248648078,0.0,0.0,0.0,0.0,0.0
1.6500000000000001,0.16749062996387365,-0.14385419489728365,-0.05392197913562396,0.0009308422677303091,-0.0007369167952864946,0.0021331801968819584,-3.3507816791534424,0.2864425778388977,-1.5285989046096802,-0.024285984921644577,0.002925876298365937,0.40675605297944717,28.510444418375798,-23.94896170420244,-2.3390549014521507,0.0009308422677303091,-0.0007369167952864946,0.0021331801968819584,0.21110339640108777,-0.06707458195915061,-0.05090262107273043,0.3359922188156503,0.6543306398585576,-1.0879431885422985,0.0,0.0,0.0,0.0,0.0
1.7000000000000002,0.07379073646811898,0.04243092514331889,-0.022913795278643713,0.0009308422677303091,-0.0007369167952864946,0.0021331801968819584,-3.3467366695404053,0.2876420021057129,-1.5315014123916626,-0.02286780580236858,0.010371745766338591,0.3501785834389981,-4.808539730009312,15.38778866385352,0.6163201167343205,0.0009308422677303091,-0.0007369167952864946,0.0021331801968819584,0.05470309737037248,0.06458202612514974,-0.02464206263190919,-0.21231509677323737,0.1087064173104026,-1.2157436718277181,0.0,0.0,0.0,0.0,0.0
1.75,0.02486582815325046,-0.0477854431876247,-0.10512379861117986,0.0009308422677303091,-0.0007369167952864946,0.0021331801968819584,-3.3427226543426514,0.2874574065208435,-1.5354318618774414,-0.01690612857092333,0.01599432195956063,0.29217685114690983,-10.541583127816718,-13.612386840456145,-0.20779601313578067,0.0009308422677303091,-0.0007369167952864946,0.0021331801968819584,0.036485411951801335,-0.04077466511713255,-0.10468530185332436,0.28653669529875603,-0.09568566911537067,-1.3077771448726159,0.0,0.0,0.0,0.0,0.0
1.8,0.03273503236910366,-0.04629874930153157,-0.08506225450746802,0.0009308422677303091,-0.0007369167952864946,0.0021331801968819584,-3.3383867740631104,0.2864983081817627,-1.5379488468170166,-0.010906532825753601,0.02556211202664982,0.2309021043884778,7.253976120822883,-13.990835074145265,6.485499856294504,0.0009308422677303091,-0.0007369167952864946,0.0021331801968819584,0.040559520738383925,-0.038975836271390486,-0.08536130937025253,0.22342422195752767,-0.09101906759818129,-1.1742979322481675,0.0,0.0,0.0,0.0,0.0
1.85,0.06824657706319175,-0.03259387830654383,-0.03864848225258747,0.0009308422677303091,-0.0007369167952864946,0.0021331801968819584,-3.3339500427246094,0.285638689994812,-1.5411440134048462,-0.00524217288604234,0.031489093227098586,0.16937745773403012,2.006571659270051,-2.9485369882328527,0.9404861782235677,0.0009308422677303091,-0.0007369167952864946,0.0021331801968819584,0.07157092614302461,-0.0210323856975381,-0.04060668229777257,0.02950944978648803,0.10941166969014557,-1.393766182490405,0.0,0.0,0.0,0.0,0.0
1.9000000000000001,0.1178855396890088,0.03468155709851839,-0.03772253083797277,0.0009308422677303091,-0.0007369167952864946,0.0021331801968819584,-3.329084873199463,0.2849558889865875,-1.5430805683135986,-0.00156420389164591,0.04050907982318197,0.10631417239639251,0.7147475062752898,10.726794947537998,-1.7430294437586464,0.0009308422677303091,-0.0007369167952864946,0.0021331801968819584,0.11192861152971072,0.04676373252962208,-0.04251987116981355,-0.013145231644333235,0.26265257814977183,-1.2287641647738945,0.0,0.0,0.0,0.0,0.0
1.9500000000000002,0.07437571923315266,0.02550000573390094,-0.012642797634514098,0.0009308422677303091,-0.0007369167952864946,0.0021331801968819584,-3.3241639137268066,0.28358888626098633,-1.5443165302276611,0.0010505816411194857,0.04680813006783735,0.043207677306909886,-8.140786986930735,14.116051832192623,-4.466435955452846,0.0009308422677303091,-0.0007369167952864946,0.0021331801968819584,0.07253312497965296,0.028673047498128074,-0.01608229970374711,-0.13160193507341994,0.004534853051887164,-1.4059681335579515,0.0,0.0,0.0,0.0,0.0
2.0,0.05399197891237169,-0.09215306301700242,-0.011667835256909913,0.0009308422677303091,-0.0007369167952864946,0.0021331801968819584,-3.320371389389038,0.28165245056152344,-1.5462617874145508,0.005939443819800161,0.05005405227122184,-0.024802716913588263,-7.897235433704027,-8.613161733370658,-2.4176359367855857,0.0009308422677303091,-0.0007369167952864946,0.0021331801968819584,0.05101315321720583,-0.09337599241616305,-0.014901054627325513,0.14324823932954847,0.05361014564430785,-1.4336591087287662,0.0,0.0,0.0,0.0,0.0
2.0500000000000003,0.04041613449916395,-0.14389768205985634,-0.008588279498399949,0.0009308422677303091,-0.0007369167952864946,0.0021331801968819584,-3.315349817276001,0.27910006046295166,-1.5474084615707397,0.010532320266041673,0.055125445920087834,-0.09399267448396387,-5.764570420205039,-11.751283494613308,1.1666077788343867,0.0009308422677303091,-0.0007369167952864946,0.0021331801968819584,0.026126217532467532,-0.14689973112824675,-0.012314833603896104,0.3399916559740974,-0.03390122814536361,-1.4190554850012467,0.0,0.0,0.0,0.0,0.0
2.1,0.15164783868463733,-0.02078779304117517,0.01660406539224081,0.0009308422677303091,-0.0007369167952864946,0.0021331801968819584,-3.3095500469207764,0.2776695489883423,-1.5480055809020996,0.009822598924978276,0.062453997208791634,-0.16111641035098323,4.536743624658122,3.7512794594303354,0.8944989775909126,0.0009308422677303091,-0.0007369167952864946,0.0021331801968819584,0.14704147247949972,-0.04512270662497788,0.006902247655005605,0.027877735834144365,0.21282242333299348,-1.3301922674157602,0.0,0.0,0.0,0.0,0.0
2.15,-0.004450658887220918,-0.018854186791418263,-0.011750555619289222,0.0009308422677303091,-0.0007369167952864946,0.0021331801968819584,-3.3047542572021484,0.2753964364528656,-1.549000859260559,0.01163747126077519,0.06416713191696766,-0.22933238440302262,-22.052379695113544,-7.328397849888317,-2.762729569523919,0.0009308422677303091,-0.0007369167952864946,0.0021331801968819584,-0.009327317889187408,-0.017041998276473867,-0.01165914736148426,-0.09594390932388414,-0.26492285759847245,-1.410104983077439,0.0,0.0,0.0,0.0,0.0
2.2,0.07916785615194075,-0.027603561496796478,0.012774303091212259,0.0009308422677303091,-0.0007369167952864946,0.0021331801968819584,-3.2982780933380127,0.27313241362571716,-1.5490444898605347,0.009675966123778856,0.06962083898495042,-0.2930314283203046,-6.791223988607901,-1.450217257775834,1.467234662451361,0.0009308422677303091,-0.0007369167952864946,0.0021331801968819584,0.0684336798811836,-0.04960799154575574,0.0069690391865646064,-0.12176486135407343,-0.10995830151266386,-1.3555939202524077,0.0,0.0,0.0,0.0,0.0
2.25,0.07645172779101501,-0.01221142012669719,0.010378808293315007,0.0009308422677303091,-0.0007369167952864946,0.0021331801968819584,-3.291834831237793,0.271587997674942,-1.549051284790039,0.004196212839218116,0.07275151405855551,-0.35603882148743793,-19.131346591712408,-9.63748392388379,-3.3816589596558413,0.0009308422677303091,-0.0007369167952864946,0.0021331801968819584,0.0678994918125353,-0.038325804630152456,0.0047430830039525695,-0.24402962852693266,-0.22511499383842298,-1.2994364363840245,0.0,0.0,0.0,0.0,0.0
2.3000000000000003,0.10312803257465698,0.04349049979262915,0.029912763230277743,0.0009308422677303091,-0.0007369167952864946,0.0021331801968819584,-3.285547971725464,0.26911023259162903,-1.5487706661224365,0.000663636264345957,0.07515253838739566,-0.41564009328618035,0.49754326702048063,9.053582813241395,2.0847626709257265,0.0009308422677303091,-0.0007369167952864946,0.0021331801968819584,0.11369025333832522,-0.002661300386871334,0.022114064644951952,-0.164085274404962,0.07077925494009285,-1.0103785925414044,0.0,0.0,0.0,0.0,0.0
2.35,0.12447812730046597,0.013601071133208121,0.08939554523389288,0.0009308422677303091,-0.0007369167952864946,0.0021331801968819584,-3.276944875717163,0.2679172158241272,-1.5470856428146362,-0.009178483427407347,0.08187799994130174,-0.4721419624940495,-19.975670574926188,-17.93802515285003,7.061024117659106,0.0009308422677303091,-0.0007369167952864946,0.0021331801968819584,0.12354904451073634,-0.04689945949139026,0.07878725226688721,-0.20875717600627153,-0.03839213849336449,-1.2024437363736502,0.0,0.0,0.0,0.0,0.0
2.4000000000000004,0.11293479936474969,0.050801743295055206,0.03795190939709659,0.0009308422677303091,-0.0007369167952864946,0.0021331801968819584,-3.2698020935058594,0.26577261090278625,-1.5455760955810547,-0.017936095131060537,0.08397012715061591,-0.5278208354914167,-1.4567609850640721,6.003519898951299,-3.3634564653627725,0.0009308422677303091,-0.0007369167952864946,0.0021331801968819584,0.12582989178733858,-0.013774896753620158,0.027432171049192326,-0.265521022685708,0.010291532692136014,-0.8771308732418022,0.0,0.0,0.0,0.0,0.0
2.45,0.11048718269865113,0.10359997638874326,0.053115406484328956,0.0009308422677303091,-0.0007369167952864946,0.0021331801968819584,-3.2624316215515137,0.26414915919303894,-1.543260931968689,-0.030727344120749844,0.08527744140251592,-0.5796554193082226,-4.125640287169362,12.159777174424587,-3.5320699013996912,0.0009308422677303091,-0.0007369167952864946,0.0021331801968819584,0.15327223592997297,0.02537524967688873,0.040315474092351075,-0.48334926958476543,0.09495583523454189,-0.9352315718564366,0.0,0.0,0.0,0.0,0.0
2.5,0.18060089818109462,0.0780600264554358,0.08593047595325672,0.0009308422677303091,-0.0007369167952864946,0.0021331801968819584,-3.254916191101074,0.2621530294418335,-1.540319561958313,-0.0440107036881594,0.08707891644531585,-0.6295621321114355,8.182938167506686,4.418305131317211,-0.4193020765509969,0.0009308422677303091,-0.0007369167952864946,0.0021331801968819584,0.19935977236350702,-0.0440638152824708,0.06639397711779003,-0.2995450562636883,0.2706645147776845,-0.7437280850325192,0.0,0.0,0.0,0.0,0.0
2.5500000000000003,0.06972869761254201,0.050314874123320086,0.08849769040388378,0.0009308422677303091,-0.0007369167952864946,0.0021331801968819584,-3.247164011001587,0.2602495551109314,-1.5370028018951416,-0.05932737467006577,0.08683561567996834,-0.6777004663721176,-3.746130126758209,0.45216364048944163,-0.024852875058148927,0.0009308422677303091,-0.0007369167952864946,0.0021331801968819584,0.09466423318481937,-0.0049821514842449946,0.07898974716839337,-0.3856050871234429,-0.11235870535529591,-0.9718052759913358,0.0,0.0,0.0,0.0,0.0
2.6,0.10357912246233152,0.15879163301470142,0.05833604419060666,0.0009308422677303091,-0.0007369167952864946,0.0021331801968819584,-3.238745927810669,0.2582949995994568,-1.5333491563796997,-0.07570640584576616,0.08667625828968895,-0.7232234678983493,-1.0381730186314742,16.466376188650713,-14.828988616995808,0.0009308422677303091,-0.0007369167952864946,0.0021331801968819584,0.18806296329110186,0.051072768081273444,0.03701898939783232,-0.6238428692773936,0.1024074766589681,-0.6836571969165164,0.0,0.0,0.0,0.0,0.0
2.6500000000000004,0.11995902934485293,0.07327389197529721,0.0535981858294961,0.0009308422677303091,-0.0007369167952864946,0.0021331801968819584,-3.22977614402771,0.25426870584487915,-1.529273509979248,-0.08532642649204014,0.08731322972981448,-0.7709530623734357,-9.010445819033718,5.894434514200809,-11.995459339402078,0.0009308422677303091,-0.0007369167952864946,0.0021331801968819584,0.14271786195624123,-0.03049637255183093,0.03651822326728415,-0.2666314798183593,-0.05271056617724165,-0.9430756375920644,0.0,0.0,0.0,0.0,0.0
2.7,0.12374615347544657,0.08915421798730493,0.07483471584265843,0.0009308422677303091,-0.0007369167952864946,0.0021331801968819584,-3.2210378646850586,0.25189831852912903,-1.5256879329681396,-0.09397163237839257,0.08989779561616573,-0.8087746564939593,-7.720609566308728,8.532740311350357,-2.483654122645081,0.0009308422677303091,-0.0007369167952864946,0.0021331801968819584,0.15848020017406442,-0.027330151218450827,0.054762293298520455,-0.1429550348310626,-0.029984903001766313,-0.7903168949468168,0.0,0.0,0.0,0.0,0.0
2.75,0.1961630041056214,0.09481548998682003,0.1096616467266856,0.0009308422677303091,-0.0007369167952864946,0.0021331801968819584,-3.211080551147461,0.2477218210697174,-1.5211424827575684,-0.09558768264981365,0.09349604164770087,-0.8498765225548155,-12.443340264152653,17.719553004523178,-12.181138564494878,0.0009308422677303091,-0.0007369167952864946,0.0021331801968819584,0.21384874545615745,-0.08452655377249756,0.08136064071873984,0.015317848574669715,0.05894969300914854,-1.0443716483262162,0.0,0.0,0.0,0.0,0.0
2.8000000000000003,0.15837585758636755,0.07836790215089327,0.10708316270257705,0.0009308422677303091,-0.0007369167952864946,0.0021331801968819584,-3.202110528945923,0.24330005049705505,-1.5166025161743164,-0.09496211512997332,0.09537487240112763,-0.8874236489320673,-9.75859216883319,5.579223097104516,-4.749620132505683,0.0009308422677303091,-0.0007369167952864946,0.0021331801968819584,0.17387893511489017,-0.0739067719404798,0.08363700779431117,0.0605597203566882,0.1646551924357188,-0.5015183406836643,0.0,0.0,0.0,0.0,0.0
2.85,0.22791740789223153,0.09328645913054323,0.13657341255690036,0.0009308422677303091,-0.0007369167952864946,0.0021331801968819584,-3.1922106742858887,0.23944106698036194,-1.5116890668869019,-0.0964495906505447,0.09540973644303485,-0.9240813703368307,5.301269376478975,3.9180762490932275,0.8561478628161187,0.0009308422677303091,-0.0007369167952864946,0.0021331801968819584,0.22859791034715202,-0.12684319177620493,0.10466520615661162,-0.06516930654471488,0.10660411276988084,-0.7241273628951246,0.0,0.0,0.0,0.0,0.0
2.9000000000000004,0.13067635767874372,0.16054737348811465,0.12489047379757719,0.0009308422677303091,-0.0007369167952864946,0.0021331801968819584,-3.182241201400757,0.23589210212230682,-1.5072414875030518,-0.09121151501064517,0.09605605286436458,-0.9612405647063653,-16.506460083681958,9.668901340071645,-4.864278338572924,0.0009308422677303091,-0.0007369167952864946,0.0021331801968819584,0.2209067198077543,-0.017233610761070245,0.09670896462796354,-0.15165951687568477,0.14664556284224964,-0.6279150610020809,0.0,0.0,0.0,0.0,0.0
2.95,0.16393452619850213,0.163066347350414,0.04844786061749056,0.0009308422677303091,-0.0007369167952864946,0.0021331801968819584,-3.1712095737457275,0.23056988418102264,-1.5032622814178467,-0.0754530769909234,0.09897538903732639,-0.993651587506756,-17.40053821061221,7.849670444212514,-6.8810808826393295,0.0009308422677303091,-0.0007369167952864946,0.0021331801968819584,0.23027755242520342,-0.048977309044423135,0.019642549843892125,0.34044487252133604,0.13290061540545864,-0.5772243246622397,0.0,0.0,0.0,0.0,0.0
3.0,0.12914351075442454,0.1652151268614084,0.06930947917339005,0.0009308422677303091,-0.0007369167952864946,0.0021331801968819584,-3.1611032485961914,0.2260380983352661,-1.4992218017578125,-0.06304717991939324,0.10003279665028364,-1.0246459502543717,4.4344562924498705,5.4901434796051225,-0.7633828166406114,0.0009308422677303091,-0.0007369167952864946,0.0021331801968819584,0.2144225014961101,-0.0269094105326152,0.04557151406343507,0.2374797971279905,-0.05844789470631221,-0.6403971644285632,0.0,0.0,0.0,0.0,0.0
3.0500000000000003,0.194753029302762,0.1478562568717752,0.09194228123123865,0.0009308422677303091,-0.0007369167952864946,0.0021331801968819584,-3.150594472885132,0.22038903832435608,-1.4950296878814697,-0.043559221341368026,0.10048610017686577,-1.0552875094765088,-1.5430217145356802,11.989904976823823,-2.803789167346772,0.0009308422677303091,-0.0007369167952864946,0.0021331801968819584,0.23175125535476185,-0.10124932622202049,0.06544866521036058,0.32870468275454073,-0.005862736296652817,-0.642924785654174,0.0,0.0,0.0,0.0,0.0
3.1,0.19619012161619387,0.13169652873798002,0.03044064406242399,0.0009308422677303091,-0.0007369167952864946,0.0021331801968819584,-3.1401100158691406,0.21437712013721466,-1.4920190572738647,-0.019378202840727443,0.10080976276460496,-1.0844695957197423,-0.21065185693901192,6.790235839754675,-7.1332443999893975,0.0009308422677303091,-0.0007369167952864946,0.0021331801968819584,0.20946831755280407,-0.11322651128914785,0.007997086671522213,0.6249268524367728,-0.03115747828234614,-0.5962580944199416,0.0,0.0,0.0,0.0,0.0
3.1500000000000004,0.1752549097793013,0.12384552611256848,0.07498212777921982,0.0009308422677303091,-0.0007369167952864946,0.0021331801968819584,-3.1286489963531494,0.2080826759338379,-1.488962173461914,0.0053582447648841125,0.10227669017138852,-1.112056387575695,-14.388375090873293,-9.164897110876208,-3.2069612182893996,0.0009308422677303091,-0.0007369167952864946,0.0021331801968819584,0.19130003653254005,-0.10857666614477324,0.05735608788685351,0.389994667873897,0.037591562374912436,-0.5444555462087568,0.0,0.0,0.0,0.0,0.0
3.2,0.24993610846549538,0.14319166189264762,0.08123833450804406,0.0009308422677303091,-0.0007369167952864946,0.0021331801968819584,-3.1177377700805664,0.2011154145002365,-1.4863765239715576,0.031903377370180674,0.10186400344990254,-1.137305012473707,14.574913930227856,-8.057140908498054,4.857952869216529,0.0009308422677303091,-0.0007369167952864946,0.0021331801968819584,0.23563201547434132,-0.17452961519298965,0.05990445766536737,0.669310588257092,-0.031216120260447008,-0.5284575668520695,0.0,0.0,0.0,0.0,0.0
3.25,0.23377943073238072,0.12196562711642545,0.05390597783889461,0.0009308422677303091,-0.0007369167952864946,0.0021331801968819584,-3.1070098876953125,0.19419828057289124,-1.4841209650039673,0.056001818042257234,0.10132382902875658,-1.161340659605508,8.494585149528698,-12.152222120484737,4.771292000965437,0.0009308422677303091,-0.0007369167952864946,0.0021331801968819584,0.20397526501766786,-0.17170384275618375,0.03669022379269729,0.4898247234477224,-0.03980655018969695,-0.4650573146214667,0.0,0.0,0.0,0.0,0.0
3.3000000000000003,0.13507528846535566,0.14796295606710086,0.015862843450637435,0.0009308422677303091,-0.0007369167952864946,0.0021331801968819584,-3.094855546951294,0.1866336613893509,-1.48236083984375,0.07869824249402324,0.10180903724359602,-1.1820774591662486,-7.870298489322578,2.6816521718158755,-3.208801267334044,0.0009308422677303091,-0.0007369167952864946,0.0021331801968819584,0.18733247294748337,-0.07149992554353221,0.013575895959495682,0.15734206785962052,-0.0011201348035265036,-0.4049664577593122,0.0,0.0,0.0,0.0,0.0
3.35,0.29067251254933485,0.16091524024223652,0.06802506060688183,0.0009308422677303091,-0.0007369167952864946,0.0021331801968819584,-3.0837759971618652,0.17798569798469543,-1.4805710315704346,0.10247023883029627,0.09838504384817148,-1.2002780878633201,14.190481868073064,-0.4608988834873524,3.598412967258103,0.0009308422677303091,-0.0007369167952864946,0.0021331801968819584,0.2504579025110783,-0.22189807976366321,0.055169867060561296,0.5964922653948077,0.06662561250968865,-0.41047698352425366,0.0,0.0,0.0,0.0,0.0
3.4000000000000004,0.1380141427131807,0.09535919611565764,0.043405587951805935,0.0009308422677303091,-0.0007369167952864946,0.0021331801968819584,-3.072190523147583,0.1713036447763443,-1.4787055253982544,0.11328841216367413,0.09846389782228426,-1.2187667689576323,-7.440584910162159,-14.39561252340108,0.9147365507183457,0.0009308422677303091,-0.0007369167952864946,0.0021331801968819584,0.1335160740898446,-0.10291974930806898,0.04007877368533106,0.15057533028889872,-0.21426796281185517,-0.2375833157660931,0.0,0.0,0.0,0.0,0.0
3.45,0.27923194662184286,0.1565084254657397,0.0379063822526104,0.0009308422677303091,-0.0007369167952864946,0.0021331801968819584,-3.060544013977051,0.16252529621124268,-1.4769988059997559,0.127035491743134,0.0969917253917203,-1.2340954806540516,13.574936844805176,-4.134082053906886,0.1635350529526475,0.0009308422677303091,-0.0007369167952864946,0.0021331801968819584,0.23565227195850716,-0.2178603140151088,0.030118953658811592,0.40053380958869095,-0.0899445408619871,-0.3385826070638715,0.0,0.0,0.0,0.0,0.0
3.5,0.26783964338072663,0.05436271369839628,0.03056311788736751,0.0009308422677303091,-0.0007369167952864946,0.0021331801968819584,-3.0494093894958496,0.153256356716156,-1.475297212600708,0.13496844980352307,0.0926002566585915,-1.2471501664156515,-6.169282634943509,-13.366819843037614,-2.114494899840254,0.0009308422677303091,-0.0007369167952864946,0.0021331801968819584,0.13309317809012255,-0.24031874175806503,0.01267247756585507,0.14604457431477302,-0.5411804176173017,-0.2026178973650933,0.0,0.0,0.0,0.0,0.0
3.5500000000000003,0.17740017072727052,0.15624665881988878,0.03069868793064505,0.0009308422677303091,-0.0007369167952864946,0.0021331801968819584,-3.0380115509033203,0.143574520945549,-1.4738553762435913,0.13922347302134153,0.08826743888959898,-1.2582568076314207,-9.908169402059967,5.5313093772657655,0.32082119278676846,0.0009308422677303091,-0.0007369167952864946,0.0021331801968819584,0.19893073109963405,-0.12625061638680543,0.036243544159248395,-0.2171677339098672,-0.1301964589607259,-0.10214311324267059,0.0,0.0,0.0,0.0,0.0
3.6,0.2699307431937889,0.16982344678721426,0.01724570371996765,0.0009308422677303091,-0.0007369167952864946,0.0021331801968819584,-3.0243782997131348,0.13457858562469482,-1.472504734992981,0.13464105032739848,0.0917928926459044,-1.2676232054702679,5.2031942494236185,-8.150416476670767,-0.23847380245258765,0.0009308422677303091,-0.0007369167952864946,0.0021331801968819584,0.23974230493915533,-0.21047423049391553,0.01497494631352899,-0.08561967851699423,-0.05586009372583055,-0.036659955888261264,0.0,0.0,0.0,0.0,0.0
3.6500000000000004,0.3289625704977831,0.1599279635376289,-0.01729966089342035,0.0009308422677303091,-0.0007369167952864946,0.0021331801968819584,-3.0125694274902344,0.12249255180358887,-1.4718409776687622,0.13447124837827795,0.08753968523881239,-1.276027359232497,6.614787395293649,-2.2733215761093026,-6.879973790898058,0.0009308422677303091,-0.0007369167952864946,0.0021331801968819584,0.24918093426336926,-0.267211939864722,-0.024479496935108855,0.19781078955018233,0.033174514467719705,0.01013125253615291,0.0,0.0,0.0,0.0,0.0
3.7,0.36720149872464036,0.1622866609340127,0.03495760624137149,0.0009308422677303091,-0.0007369167952864946,0.0021331801968819584,-3.0004518032073975,0.11132750660181046,-1.47073495388031,0.12410471411994228,0.08500685306762157,-1.2821364805844997,8.807364815602249,-6.695123121087462,6.031083642519789,0.0009308422677303091,-0.0007369167952864946,0.0021331801968819584,0.25570442312192837,-0.3105857272408144,0.02340276152586005,-0.0022729640176422546,0.017935993752631704,-0.19184814189187355,0.0,0.0,0.0,0.0,0.0
3.75,0.2515797889736983,0.1503032902288302,0.021660402390133695,0.0009308422677303091,-0.0007369167952864946,0.0021331801968819584,-2.9880728721618652,0.10082466900348663,-1.4697450399398804,0.10698992963724807,0.08308121667534274,-1.28573149624145,-9.29407720043495,-12.570429084429401,-0.6995958833657576,0.0009308422677303091,-0.0007369167952864946,0.0021331801968819584,0.21257546151827117,-0.20221135057890285,0.016579661115809736,-0.4213212732373521,-0.11734242234568093,-0.1441358594927489,0.0,0.0,0.0,0.0,0.0
3.8000000000000003,0.2364964550086044,0.12242101446617351,0.020234007603922004,0.0009308422677303091,-0.0007369167952864946,0.0021331801968819584,-2.975780487060547,0.08890138566493988,-1.4687495231628418,0.088682053411405,0.08053915684336954,-1.2870032916967968,-10.735608579882962,0.6725256127112265,-2.753082229062689,0.0009308422677303091,-0.0007369167952864946,0.0021331801968819584,0.1820443812522216,-0.19505344538668562,0.011869699893363124,-0.393984820001612,-0.12417924011707664,-0.021570872299977353,0.0,0.0,0.0,0.0,0.0
3.85,0.1619838211512737,0.23108728721407298,0.01567917917029074,0.0009308422677303091,-0.0007369167952864946,0.0021331801968819584,-2.9645981788635254,0.0787808746099472,-1.4671545028686523,0.061154113821669576,0.07625316801689741,-1.2881251112584717,-19.524020306040633,12.829875194082174,-0.2933997888748229,0.0009308422677303091,-0.0007369167952864946,0.0021331801968819584,0.2662634134992875,-0.09321382353796492,0.01734667170733126,-1.0047451531914875,0.08047702755501909,0.15432233840028226,0.0,0.0,0.0,0.0,0.0
3.9000000000000004,0.33679347066322196,0.1395715808073398,0.0770236860513576,0.0009308422677303091,-0.0007369167952864946,0.0021331801968819584,-2.9516007900238037,0.06711336970329285,-1.465014934539795,0.03676928010474967,0.0770637628774331,-1.2891706884843455,3.788022180993496,0.6325986233071267,4.4566934906962326,0.0009308422677303091,-0.0007369167952864946,0.0021331801968819584,0.22634231639580332,-0.29066084010491666,0.055929849825138864,-0.21012163310101176,-0.024472361277372935,-0.057916824364675656,0.0,0.0,0.0,0.0,0.0
3.95,0.25493853700844155,0.23527148080268778,0.016485939185237948,0.0009308422677303091,-0.0007369167952864946,0.0021331801968819584,-2.9396610260009766,0.0537262000143528,-1.4649287462234497,0.018958580518654955,0.07241801858419428,-1.28216970496569,-16.372253159575124,23.899633565186978,-2.919236051302171,0.0009308422677303091,-0.0007369167952864946,0.0021331801968819584,0.29800529374846507,-0.1783395468933337,0.0024422190083772206,-0.5599474442755928,0.1670519408318082,0.24548753053301625,0.0,0.0,0.0,0.0,0.0
4.0,0.32060053498236263,0.133591164218952,0.04158828607658785,0.0009308422677303091,-0.0007369167952864946,0.0021331801968819584,-2.9274706840515137,0.040476515889167786,-1.464111566543579,9.813510755218857e-05,0.06880560070514763,-1.2786588428560721,-30.07642400204393,-21.76742719660148,-8.934304851883821,0.0009308422677303091,-0.0007369167952864946,0.0021331801968819584,0.2208651980367538,-0.27055630065061065,0.01946124871590001,-0.3399167188406356,-0.11969921204434543,0.18534266531130245,0.0,0.0,0.0,0.0,0.0
4.05,0.31374216779911285,0.2383620775693542,0.0857165987323333,0.0009308422677303091,-0.0007369167952864946,0.0021331801968819584,-2.9135003089904785,0.027866370975971222,-1.463051676750183,-0.018704483709423236,0.07264054711237722,-1.2757570600993642,4.599172153405484,9.11277112918349,0.9816114733934582,0.0009308422677303091,-0.0007369167952864946,0.0021331801968819584,0.3222597355738254,-0.23527119951805367,0.05825880776268653,-0.3243658780757941,0.21773422652522983,-0.1383935010787897,0.0,0.0,0.0,0.0,0.0
4.1000000000000005,0.2871213875702374,0.186639775368985,0.08002463431555652,0.0009308422677303091,-0.0007369167952864946,0.0021331801968819584,-2.9015860557556152,0.01590978354215622,-1.4624791145324707,-0.036868752895649504,0.06958360955298937,-1.2684010084368893,-24.650761670610912,23.13675472718366,8.651807042828056,0.0009308422677303091,-0.0007369167952864946,0.0021331801968819584,0.2676794133053955,-0.2218579935684768,0.05295093417146848,-0.49231326965916866,0.1528220081916099,-0.079467320695908,0.0,0.0,0.0,0.0,0.0
4.15,0.22570976195970088,0.030099389142737843,0.012672650950194198,0.0009308422677303091,-0.0007369167952864946,0.0021331801968819584,-2.889291286468506,0.004145242273807526,-1.4627914428710938,-0.04994695102800284,0.06784472764395488,-1.257814955681777,-18.09810822840345,-30.606208669086747,-0.3688311872825912,0.0009308422677303091,-0.0007369167952864946,0.0021331801968819584,0.0987715998589397,-0.20551939762842364,-0.00417303397202304,-0.298637491106285,-0.2636216957175403,0.5214626338339241,0.0,0.0,0.0,0.0,0.0
4.2,0.3347803987008657,0.10731551808028816,0.008963491284039086,0.0009308422677303091,-0.0007369167952864946,0.0021331801968819584,-2.874311685562134,-0.0065382421016693115,-1.463260531425476,-0.0671565464935866,0.07474137899696265,-1.2515428669769122,4.963342366758698,-18.818609742017895,-2.603942341582663,0.0009308422677303091,-0.0007369167952864946,0.0021331801968819584,0.20705521472392638,-0.2833053274990978,-0.023261758691206544,-0.1882048279300653,-0.2563399265408355,0.04901766510984821,0.0,0.0,0.0,0.0,0.0
4.25,0.3249029584036647,0.11755615760043693,0.03645517015066511,0.0009308422677303091,-0.0007369167952864946,0.0021331801968819584,-2.861894369125366,-0.01814630627632141,-1.462751030921936,-0.07294288319918119,0.07308750084911786,-1.2397125917445244,0.029884724093063364,-4.084720322096274,0.1936967979408213,0.0009308422677303091,-0.0007369167952864946,0.0021331801968819584,0.2193819365247142,-0.2693807630524881,0.003991544046062697,-0.05435746710136426,-0.07361325519747747,0.154414918519788,0.0,0.0,0.0,0.0,0.0
4.3,0.2967107028964273,0.32664771158547024,-0.0006629931777198284,0.0009308422677303091,-0.0007369167952864946,0.0021331801968819584,-2.849073648452759,-0.030733466148376465,-1.4633228778839111,-0.06754908239220869,0.07100585642801027,-1.2270613575190925,6.456803069929579,16.503814531687187,2.8347679298999804,0.0009308422677303091,-0.0007369167952864946,0.0021331801968819584,0.40599447436720343,-0.16731696341361316,-0.04370273211843831,-0.18221707770945186,0.32700706732569335,0.07585993248493064,0.0,0.0,0.0,0.0,0.0
4.3500000000000005,0.28898378821898313,0.3029904087641724,-0.0026056549453373078,0.0009308422677303091,-0.0007369167952864946,0.0021331801968819584,-2.8352789878845215,-0.04293806850910187,-1.4648327827453613,-0.0633342945804678,0.07414939797074349,-1.21275294016902,1.7047284367591538,26.092816994054147,3.60651133373169,0.0009308422677303091,-0.0007369167952864946,0.0021331801968819584,0.38348116576431285,-0.1624929803594056,-0.043125791959451674,-0.21514990180130036,0.32922329715436566,0.31270136335327603,0.0,0.0,0.0,0.0,0.0
4.4,0.33135900260933454,0.34845092035370323,0.04391253099839123,0.0009308422677303091,-0.0007369167952864946,0.0021331801968819584,-2.8231241703033447,-0.05382943153381348,-1.4649269580841064,-0.05673150031853469,0.07038439091252457,-1.1955204076290205,26.483284718292047,25.850129524718284,8.817838271200053,0.0009308422677303091,-0.0007369167952864946,0.0021331801968819584,0.44776891454085105,-0.1806865284092456,0.0007214614358443821,-0.07602263070006633,0.4722692402754302,0.16377538492003663,0.0,0.0,0.0,0.0,0.0
4.45,0.18838373347773868,0.19986952909396935,-0.00690323173439425,0.0009308422677303091,-0.0007369167952864946,0.0021331801968819584,-2.8103525638580322,-0.06489109992980957,-1.466315507888794,-0.045080852446655495,0.06870900803513269,-1.176205073483402,-4.795332287851588,-4.953397071408109,1.4979073449060398,0.0009308422677303091,-0.0007369167952864946,0.0021331801968819584,0.25586556753329104,-0.0958505072923272,-0.028799408158951597,-0.1807964214746242,0.06797741503446673,0.2322417864149987,0.0,0.0,0.0,0.0,0.0
4.5,0.2248860014376935,0.13777588379760597,-0.0007427624628810698,0.0009308422677303091,-0.0007369167952864946,0.0021331801968819584,-2.7990221977233887,-0.07638581842184067,-1.4676291942596436,-0.029054356577824958,0.06359917896492306,-1.1551847164103624,-4.27573289793103,10.380416173148921,-5.3500136383846595,0.0009308422677303091,-0.0007369167952864946,0.0021331801968819584,0.21646631754344203,-0.14945474291835278,-0.01902820756962628,0.12324922382822706,-0.07400378259239704,0.4212861310478262,0.0,0.0,0.0,0.0,0.0
4.55,0.41444660256937305,0.05209887935823969,-0.00032354970256678,0.0009308422677303091,-0.0007369167952864946,0.0021331801968819584,-2.7855944633483887,-0.08810997754335403,-1.4700478315353394,-0.01172581229477121,0.0632153583984898,-1.134959375707063,5.97025175039357,-8.812422775072443,-4.481600154306503,0.0009308422677303091,-0.0007369167952864946,0.0021331801968819584,0.2218140470567655,-0.35290751916965507,-0.027114493133910608,0.7658950270798005,-0.10072592697246276,0.33718430945295286,0.0,0.0,0.0,0.0,0.0
4.6000000000000005,0.33677621526087964,0.12526759292073936,0.0019800411608235915,0.0009308422677303091,-0.0007369167952864946,0.0021331801968819584,-2.7717909812927246,-0.09802236407995224,-1.4728058576583862,0.0047512825602509245,0.06312957987701795,-1.1126824833578581,-0.8716938723287727,-16.044757890733205,13.52283128576077,0.0009308422677303091,-0.0007369167952864946,0.0021331801968819584,0.26105819834159116,-0.24619894488229405,-0.018676353554283365,0.5166241033858912,0.15544390786990328,0.4570369989653838,0.0,0.0,0.0,0.0,0.0
4.65,0.2951999986755192,0.05753737303838031,-0.047985413790076266,0.0009308422677303091,-0.0007369167952864946,0.0021331801968819584,-2.760852098464966,-0.10900525748729706,-1.475036859512329,0.02281034844090346,0.0544698925533913,-1.08713363663861,0.02886728450146554,-5.430871087476813,-0.9213536001916458,0.0009308422677303091,-0.0007369167952864946,0.0021331801968819584,0.18778379961915923,-0.23144499780284167,-0.06266295591035594,0.45578203475962487,-0.19301413447415106,0.5547019287590246,0.0,0.0,0.0,0.0,0.0
4.7,0.3338960449660275,0.18547372895007572,-0.05356105362833418,0.0009308422677303091,-0.0007369167952864946,0.0021331801968819584,-2.7461836338043213,-0.11937341094017029,-1.4779664278030396,0.03945503019043217,0.05656223828655582,-1.0617922675077942,12.377351942283468,-0.6536128973248742,-0.3676138623461572,0.0009308422677303091,-0.0007369167952864946,0.0021331801968819584,0.32485720992097644,-0.19747900529431708,-0.06500534647784471,0.39339365550756433,0.20613536620385572,0.406628027110433,0.0,0.0,0.0,0.0,0.0
4.75,0.34321075630001413,0.06450461489037909,-0.016093544885443935,0.0009308422677303091,-0.0007369167952864946,0.0021331801968819584,-2.7329020500183105,-0.1314477026462555,-1.48091721534729,0.06031074195409625,0.05302365294596867,-1.0321651602469064,3.1215502685461796,-13.698779932563601,2.1199827462783647,0.0009308422677303091,-0.0007369167952864946,0.0021331801968819584,0.23157894736842105,-0.26012228260869563,-0.030348970251716248,0.4293488627140894,-0.1704243156207018,0.4847672241025986,0.0,0.0,0.0,0.0,0.0
4.800000000000001,0.33960379468894,0.12052427364584137,-0.09171646428369824,0.0009308422677303091,-0.0007369167952864946,0.0021331801968819584,-2.718977928161621,-0.1407269984483719,-1.4845930337905884,0.06996574235791542,0.05465971675486547,-1.0021958422632213,11.053913081834828,-13.655209624989912,-6.441531461856139,0.0009308422677303091,-0.0007369167952864946,0.0021331801968819584,0.28685897435897434,-0.21372714862298195,-0.1014957264957265,0.21861630457313908,-0.05983413964957605,0.5585595894815419,0.0,0.0,0.0,0.0,0.0
4.8500000000000005,0.37256248370363715,0.05315723707139053,-0.057442069434287556,0.0009308422677303091,-0.0007369167952864946,0.0021331801968819584,-2.7050535678863525,-0.15254296362400055,-1.4871091842651367,0.08242544842433475,0.052297054443621205,-0.9735509903412476,2.3159475695590785,-8.706666234758135,-6.442969184828844,0.0009308422677303091,-0.0007369167952864946,0.0021331801968819584,0.2553925798101812,-0.272908947875958,-0.07227325787951074,0.47447320047363434,0.027129003402271673,0.6077479649557684,0.0,0.0,0.0,0.0,0.0
4.9,0.4175563214561221,0.06958807215936658,0.024956904879811625,0.0009308422677303091,-0.0007369167952864946,0.0021331801968819584,-2.690168619155884,-0.16258594393730164,-1.491464376449585,0.08859933794705999,0.05191605325149151,-0.9378332176561246,11.985575058906369,-10.855751726097823,14.362951632673926,0.0009308422677303091,-0.0007369167952864946,0.0021331801968819584,0.3017258766243121,-0.2978145619039387,0.009306479960814821,0.39644837112211845,0.13761569653460415,0.9010672390547481,0.0,0.0,0.0,0.0,0.0
4.95,0.3560801724329843,0.16488885731006261,-0.09590240513544557,0.0009308422677303091,-0.0007369167952864946,0.0021331801968819584,-2.676273822784424,-0.1712806522846222,-1.493467092514038,0.08322905068511144,0.055272096027526585,-0.9018461880566795,4.575303514081679,15.830248588755774,-12.565683918360683,0.0009308422677303091,-0.0007369167952864946,0.0021331801968819584,0.35284325674028716,-0.1685127522963051,-0.10140899497636813,0.020534096425173558,0.4665373120070906,1.136023988253895,0.0,0.0,0.0,0.0,0.0
5.0,0.300482327219669,0.13654702830189094,-0.015601467766248212,0.0009308422677303091,-0.0007369167952864946,0.0021331801968819584,-2.6613516807556152,-0.18098832666873932,-1.4956507682800293,0.07734440107718576,0.053913570340460515,-0.8660593143055966,10.845454896774728,-0.002001336310157502,1.3619834775049153,0.0009308422677303091,-0.0007369167952864946,0.0021331801968819584,0.2988313856427379,-0.1393877616540388,-0.021189161422884295,-0.3109955269711302,0.06601736795860919,0.7596764269920098,0.0,0.0,0.0,0.0,0.0
5.050000000000001,0.3965450305940289,0.1257778486435615,0.035101299647591254,0.0009308422677303091,-0.0007369167952864946,0.0021331801968819584,-2.646658182144165,-0.19143828749656677,-1.4966145753860474,0.069105120574954,0.05381218771220175,-0.8299194706905935,10.163918824222181,24.596479325463566,10.31458912304445,0.0009308422677303091,-0.0007369167952864946,0.0021331801968819584,0.3596399099774944,-0.2108589647411853,0.022310577644411102,-0.3819491997950858,0.039013279176024415,0.7392122384430722,0.0,0.0,0.0,0.0,0.0
5.1000000000000005,0.30751551938587873,-0.10196328057657597,0.03340360137432462,0.0009308422677303091,-0.0007369167952864946,0.0021331801968819584,-2.6320297718048096,-0.20008516311645508,-1.4992603063583374,0.0568715109243465,0.054749848724836125,-0.7867801102140861,-2.991106251642482,-29.650008715763764,10.14991153953485,0.0009308422677303091,-0.0007369167952864946,0.0021331801968819584,0.14445874780573434,-0.2917115272088941,0.010684610883557636,0.16572313120881843,-0.2651974604925116,0.648522638788849,0.0,0.0,0.0,0.0,0.0
5.15,0.3464276828240615,0.11130641799925667,-0.025792045956632155,0.0009308422677303091,-0.0007369167952864946,0.0021331801968819584,-2.6165621280670166,-0.2101309597492218,-1.5006287097930908,0.043255619003589096,0.054607774606900694,-0.7448930429229792,-2.0715205965589054,11.83781503191794,-4.292303851940357,0.0009308422677303091,-0.0007369167952864946,0.0021331801968819584,0.3295988018778261,-0.15114412027303362,-0.039831802079433196,-0.4173600319551937,0.05137012090727849,0.8865511027134152,0.0,0.0,0.0,0.0,0.0
5.2,0.28629978463965033,0.009739785258906598,0.00723139569628243,0.0009308422677303091,-0.0007369167952864946,0.0021331801968819584,-2.6024069786071777,-0.2200303077697754,-1.5016429424285889,0.02690975002187601,0.0529151998681352,-0.6998717741727543,2.4510594595439144,-6.919314759122388,4.737000080612085,0.0009308422677303091,-0.0007369167952864946,0.0021331801968819584,0.2251403211069051,-0.17710971152591046,-0.007662185093329853,-0.3286790377568493,-0.20176520416329033,0.6796243287116238,0.0,0.0,0.0,0.0,0.0
5.25,0.19774475961499466,-0.05576997686162699,-0.0053569729816950636,0.0009308422677303091,-0.0007369167952864946,0.0021331801968819584,-2.587552309036255,-0.2284451723098755,-1.5025904178619385,0.004581641811804094,0.05118284433979636,-0.6526658487552197,-32.3386962521793,-39.16346638989362,1.979330750842343,0.0009308422677303091,-0.0007369167952864946,0.0021331801968819584,0.12281375075387906,-0.16404750808706617,-0.015721804923515544,-0.3314757061713422,-0.3304161289448452,0.9240718443422368,0.0,0.0,0.0,0.0,0.0
5.300000000000001,0.3190257482724272,0.0970407866794243,0.0038317168057643985,0.0009308422677303091,-0.0007369167952864946,0.0021331801968819584,-2.5696351528167725,-0.23549434542655945,-1.5043188333511353,-0.02349361557585805,0.05609056113164268,-0.6043326683772943,-19.741458373348717,-0.5927120874236392,-0.966227372390017,0.0009308422677303091,-0.0007369167952864946,0.0021331801968819584,0.3173548443257987,-0.10113382468154253,-0.016336360734700985,-0.6872303716875005,-0.12229635627946837,0.996204823692028,0.0,0.0,0.0,0.0,0.0
5.3500000000000005,0.3298682420454374,0.08439114639677947,-0.03285032906959137,0.0009308422677303091,-0.0007369167952864946,0.0021331801968819584,-2.553276538848877,-0.24464313685894012,-1.5044842958450317,-0.04243700483897905,0.054695206826996134,-0.5518721578152892,-9.042739765920283,17.95353723279761,-9.143554680452482,0.0009308422677303091,-0.0007369167952864946,0.0021331801968819584,0.3222571664260672,-0.1010308182099402,-0.05437976902454114,-0.4730359746686669,-0.04264298915475738,0.9516896154224653,0.0,0.0,0.0,0.0,0.0
5.4,0.19212455916724352,0.2219847533201101,-0.02433917159658379,0.0009308422677303091,-0.0007369167952864946,0.0021331801968819584,-2.5371272563934326,-0.2543528974056244,-1.5050036907196045,-0.05672455339582605,0.05669198179067991,-0.4966755886729448,-23.89068594564413,19.24702372654467,-7.562393414796981,0.0009308422677303091,-0.0007369167952864946,0.0021331801968819584,0.27175091390394557,0.10323017773856044,-0.0477120887432245,-1.237134153918033,-0.060307650294093365,0.8446727742655016,0.0,0.0,0.0,0.0,0.0
5.45,0.46325386217100323,0.08524926899931744,0.059774485677952634,0.0009308422677303091,-0.0007369167952864946,0.0021331801968819584,-2.5212059020996094,-0.26294898986816406,-1.5045243501663208,-0.07592783466772346,0.05382290129171108,-0.44575557566238366,25.076713409449543,23.108103104317923,4.382889367819529,0.0009308422677303091,-0.0007369167952864946,0.0021331801968819584,0.45856433670326485,-0.11988169003877233,0.0281371163532268,-0.5838109333396561,-0.009408936950869784,1.3806074178547243,0.0,0.0,0.0,0.0,0.0
5.5,0.4522081629117884,-0.1341922303191005,0.0321815109685614,0.0009308422677303091,-0.0007369167952864946,0.0021331801968819584,-2.505164861679077,-0.27012118697166443,-1.5042355060577393,-0.0912063562143004,0.05074781503886583,-0.38835827789557253,16.47098597000984,-13.165164832537663,-0.28177741126855355,0.0009308422677303091,-0.0007369167952864946,0.0021331801968819584,0.37057933122333836,-0.2928374845190588,0.021274253474611256,0.12978729424172572,0.08506609891894121,0.9160593633486789,0.0,0.0,0.0,0.0,0.0
5.550000000000001,0.3873136662661947,-0.047374270328485166,0.001443710020018353,0.0009308422677303091,-0.0007369167952864946,0.0021331801968819584,-2.489454507827759,-0.275399774312973,-1.5048925876617432,-0.10880621655062539,0.04481174401122301,-0.3345191883638243,12.003901418797634,-4.2563783681740235,-0.2849838448245518,0.0009308422677303091,-0.0007369167952864946,0.0021331801968819584,0.3503451099672438,-0.1714655474964904,-0.010777374824520356,-0.14846444562968533,-0.10101256982735948,1.0210996076963,0.0,0.0,0.0,0.0,0.0
5.6000000000000005,0.21040723314385265,0.0118958950283082,0.003316496238022547,0.0009308422677303091,-0.0007369167952864946,0.0021331801968819584,-2.4744904041290283,-0.2824600636959076,-1.5036582946777344,-0.1157376088406723,0.038607617209007294,-0.2758795335246047,-16.126991523735565,-6.097563735341824,-2.4638247728440885,0.0009308422677303091,-0.0007369167952864946,0.0021331801968819584,0.20569436374201047,-0.04555301518328576,-0.006202157491852563,-0.28265507002444995,-0.3485732458033903,0.8799804978436297,0.0,0.0,0.0,0.0,0.0
5.65,0.3548789165563374,-0.09409606837327252,0.012670785319723182,0.0009308422677303091,-0.0007369167952864946,0.0021331801968819584,-2.458125591278076,-0.2898755967617035,-1.5033531188964844,-0.1117143700991039,0.03627802120611623,-0.214293953545873,16.3212414059296,-11.272276483188069,-10.11590986113043,0.0009308422677303091,-0.0007369167952864946,0.0021331801968819584,0.3277664498171344,-0.1655864647053112,0.010195164579085349,0.14298294457938934,-0.13851095847136197,1.2405565675796206,0.0,0.0,0.0,0.0,0.0
5.7,0.33055283048217265,-0.05623689759128121,0.013048896197424466,0.0009308422677303091,-0.0007369167952864946,0.0021331801968819584,-2.4417569637298584,-0.29575780034065247,-1.5023767948150635,-0.10713124087556514,0.035399018647364056,-0.1496057063716556,0.705813384622557,3.069736727660613,0.5098040983984763,0.0009308422677303091,-0.0007369167952864946,0.0021331801968819584,0.3191942497115982,-0.10324784807880025,0.0072765995208093,0.09075225897341174,-0.10040604821413329,1.3316410283549558,0.0,0.0,0.0,0.0,0.0
5.75,0.24953622439535092,-0.1957137639465265,0.05402056590238886,0.0009308422677303091,-0.0007369167952864946,0.0021331801968819584,-2.426405429840088,-0.3007318675518036,-1.501042366027832,-0.10338438160665397,0.03017702334498651,-0.08866056573764114,-17.712734896110245,-14.262320466255698,3.088133088265878,0.0009308422677303091,-0.0007369167952864946,0.0021331801968819584,0.23392160947590845,-0.21063361209487813,0.06636707240855927,0.3410085271331614,-0.0913403752936457,0.9622256405527286,0.0,0.0,0.0,0.0,0.0
5.800000000000001,0.3597751430823388,-0.10495470422311709,0.024174935670551623,0.0009308422677303091,-0.0007369167952864946,0.0021331801968819584,-2.4105734825134277,-0.3053704798221588,-1.5002332925796509,-0.09558301682997516,0.02747997987851014,-0.023828176161476033,-15.198811800396408,7.596406641655593,2.085629929953171,0.0009308422677303091,-0.0007369167952864946,0.0021331801968819584,0.35803912621912964,-0.11073047966691382,0.024182969257970685,0.23206009705660552,-0.03497440488539457,1.3441625186457558,0.0,0.0,0.0,0.0,0.0
5.8500000000000005,0.3020472152280855,-0.11116690803527216,0.010361045429174173,0.0009308422677303091,-0.0007369167952864946,0.0021331801968819584,-2.394256830215454,-0.3099513649940491,-1.5006752014160156,-0.0798942775935032,0.026455332477930416,0.04584964645186007,-2.8759259002083852,15.94360577726191,2.288215138869156,0.0009308422677303091,-0.0007369167952864946,0.0021331801968819584,0.3071725868065454,-0.0960074690689321,0.011203603398141285,0.22565103111470775,-0.008296158047999049,1.0896121491036344,0.0,0.0,0.0,0.0,0.0
5.9,0.23720761568573948,0.00305035433207429,0.05351332237585931,0.0009308422677303091,-0.0007369167952864946,0.0021331801968819584,-2.378668785095215,-0.3128633201122284,-1.4994277954101562,-0.0669870132954773,0.02926917824730446,0.11563182476139922,-5.195607869744409,12.417464763644219,3.6206038062525123,0.0009308422677303091,-0.0007369167952864946,0.0021331801968819584,0.23630441220017767,0.03411681966242227,0.04622445957950844,-0.08557004608624268,-0.17130413434804942,1.2488310563780955,0.0,0.0,0.0,0.0,0.0
5.95,0.2522740462642104,-0.09249695852622238,0.030656649507916498,0.0009308422677303091,-0.0007369167952864946,0.0021331801968819584,-2.3621673583984375,-0.3153582215309143,-1.4988160133361816,-0.05322238197468687,0.032976540420667,0.18784886468544393,-8.57144402584385,5.628900047573568,4.294067005664659,0.0009308422677303091,-0.0007369167952864946,0.0021331801968819584,0.2657967420100333,-0.041834592187588074,0.02719688856321515,0.20047900124761314,-0.05477052081868617,1.4976043882627803,0.0,0.0,0.0,0.0,0.0
6.0,0.1673680341328525,-0.2029081582628344,0.0680660179075414,0.0009308422677303091,-0.0007369167952864946,0.0021331801968819584,-2.3470871448516846,-0.31871598958969116,-1.497184157371521,-0.039478234097402254,0.036500540479785126,0.2545066038182551,-11.205727587181327,-5.683635674373277,4.020066138389551,0.0009308422677303091,-0.0007369167952864946,0.0021331801968819584,0.21492327443907808,-0.15081081494161522,0.06986305557253775,0.18294781912357333,-0.23860421686634187,1.187931919820138,0.0,0.0,0.0,0.0,0.0
6.050000000000001,0.2110967823514076,-0.22134245312506823,0.027881757050129494,0.0009308422677303091,-0.0007369167952864946,0.0021331801968819584,-2.3323774337768555,-0.32002896070480347,-1.4968791007995605,-0.02660944809427024,0.03779877432399248,0.3213946759165083,-3.584291391875647,-3.4536634777073827,2.42938330917423,0.0009308422677303091,-0.0007369167952864946,0.0021331801968819584,0.2710159721388255,-0.1421918157799928,0.025759577278731835,0.4780168133137775,0.041237273394954796,1.3051424192894803,0.0,0.0,0.0,0.0,0.0
6.1000000000000005,0.1034892670644591,-0.20444182802885727,0.03771496748734598,0.0009308422677303091,-0.0007369167952864946,0.0021331801968819584,-2.3184874057769775,-0.32244130969047546,-1.4961791038513184,-0.017121441335175902,0.03662279498160159,0.383716129802953,-23.33336251176636,-19.48748710980629,2.978909250773537,0.0009308422677303091,-0.0007369167952864946,0.0021331801968819584,0.17358203273696232,-0.14966618839858276,0.037392755702614855,0.036965604500793205,-0.4192571319574342,0.9927790096254732,0.0,0.0,0.0,0.0,0.0
6.15,0.4459128202197234,0.11787402480341147,-0.00804422322678963,0.0009308422677303091,-0.0007369167952864946,0.0021331801968819584,-2.301496744155884,-0.3217000663280487,-1.497153401374817,-0.008066971716601312,0.046115953171992574,0.44986537447024766,31.35545452779374,45.6723202975772,1.5115413086896423,0.0009308422677303091,-0.0007369167952864946,0.0021331801968819584,0.3495197438633938,0.29960052768884143,-0.029541681489386934,-0.3370527094713774,0.045134282651726546,1.5077868031922514,0.0,0.0,0.0,0.0,0.0
6.2,0.2804841264026206,-0.12435878639485108,-0.04496383748016294,0.0009308422677303091,-0.0007369167952864946,0.0021331801968819584,-2.287564516067505,-0.324759840965271,-1.4977107048034668,0.00038589368758090714,0.04867329867158765,0.5118525771444631,6.36860914552359,6.431908389428865,-8.951537416237656,0.0009308422677303091,-0.0007369167952864946,0.0021331801968819584,0.303239541975948,0.02773821853961678,-0.05860521318833074,0.16205165622400805,0.04767456655932077,1.3611627462071323,0.0,0.0,0.0,0.0,0.0
6.25,0.1841925623100739,-0.2790404858803915,-0.033308395792772824,0.0009308422677303091,-0.0007369167952864946,0.0021331801968819584,-2.272933006286621,-0.32660192251205444,-1.4987733364105225,0.006977595200387654,0.05197389542124897,0.569238592184016,-2.3161585273416856,-21.492056900692823,-13.031273873181677,0.0009308422677303091,-0.0007369167952864946,0.0021331801968819584,0.3036666871052793,-0.13668066711631616,-0.04477589061254522,0.44800389946521,-0.12312114746255282,1.3391051901031228,0.0,0.0,0.0,0.0,0.0
6.300000000000001,0.24482400626835601,-0.20088547951594163,-0.007257054574227911,0.0009308422677303091,-0.0007369167952864946,0.0021331801968819584,-2.260836124420166,-0.32684165239334106,-1.4987081289291382,0.003920355202275516,0.04747464942394175,0.6239519724619109,4.231868999920011,-1.3128103837983105,-3.37137054493391,0.0009308422677303091,-0.0007369167952864946,0.0021331801968819584,0.31550877589028725,-0.020355973813420622,-0.019654043681923358,0.0018919286973502379,0.14797456796971215,1.1325846255201717,0.0,0.0,0.0,0.0,0.0
6.3500000000000005,0.14139875802869994,-0.2545099918169391,-0.03882353734467139,0.0009308422677303091,-0.0007369167952864946,0.0021331801968819584,-2.2437400817871094,-0.3286636173725128,-1.5007963180541992,0.008365196658531637,0.0547374708335302,0.6806337341249131,-16.033964529754,-10.756376500546212,-6.869531420683742,0.0009308422677303091,-0.0007369167952864946,0.0021331801968819584,0.2679351656095842,-0.11010218463706836,-0.048625792811839326,0.13813670205158446,0.0035485653446395266,0.7481061125418055,0.0,0.0,0.0,0.0,0.0
6.4,0.24325834027066362,-0.17241453711670487,0.03227990046649789,0.0009308422677303091,-0.0007369167952864946,0.0021331801968819584,-2.230231761932373,-0.3293793499469757,-1.5009686946868896,0.005259637115295757,0.04844017847539028,0.7334871135582581,12.506281721766062,6.505766904431519,2.659986763770854,0.0009308422677303091,-0.0007369167952864946,0.0021331801968819584,0.2971569988531418,0.03547715337719563,0.019556950564374963,-0.18014990792953173,-0.1917100144674047,1.1604857066877938,0.0,0.0,0.0,0.0,0.0
6.45,0.004617032934089697,-0.18012226380406687,0.059894323257119735,0.0009308422677303091,-0.0007369167952864946,0.0021331801968819584,-2.2168045043945312,-0.3310590386390686,-1.500475525856018,-0.0012137727452445901,0.042321563028701936,0.7814101908101696,-20.03035579063718,-1.827117226972451,3.0484402454855912,0.0009308422677303091,-0.0007369167952864946,0.0021331801968819584,0.13188578392001551,-0.12278090121029163,0.059863738333287175,-0.18579255092147148,-0.5992489095612092,0.6138617634614574,0.0,0.0,0.0,0.0,0.0
6.5,0.14116170763330457,-0.20313736945634908,0.06091508333929054,0.0009308422677303091,-0.0007369167952864946,0.0021331801968819584,-2.203091621398926,-0.33109527826309204,-1.5004216432571411,-0.010201767780798399,0.03414873787423134,0.8286679911957355,-10.822266937602482,6.926447191572406,9.090621479074397,0.0009308422677303091,-0.0007369167952864946,0.0021331801968819584,0.2460559259147537,-0.03129996078549667,0.05812795994087659,-0.32304593043200747,-0.32674608343050177,0.8420466080955007,0.0,0.0,0.0,0.0,0.0
6.550000000000001,0.15572799778545035,-0.21669048213149372,-0.02924262734391877,0.0009308422677303091,-0.0007369167952864946,0.0021331801968819584,-2.1905481815338135,-0.33254534006118774,-1.5007922649383545,-0.016427492501036145,0.020538332433496453,0.8720472677506539,-7.970272917704033,11.440439407866128,-0.7223788699979715,0.0009308422677303091,-0.0007369167952864946,0.0021331801968819584,0.26606721307127135,-0.020874777857351264,-0.028871913211851143,-0.09241788853399088,-0.1967919209397139,0.7913754185566468,0.0,0.0,0.0,0.0,0.0
6.6000000000000005,0.08315426314013723,-0.2085544957000602,-0.04012159205688487,0.0009308422677303091,-0.0007369167952864946,0.0021331801968819584,-2.1753413677215576,-0.3330041468143463,-1.5015804767608643,-0.02660009245550965,0.013049429660860756,0.9153844343219895,-31.596616037710636,20.89292773111469,8.69824502956342,0.0009308422677303091,-0.0007369167952864946,0.0021331801968819584,0.21653104447664698,-0.06215513878051499,-0.035642626240107014,-0.12254846415710542,-0.4289784996285559,0.7074041486156226,0.0,0.0,0.0,0.0,0.0
6.65,0.1789366693972157,-0.2773752304697471,0.009288976586299692,0.0009308422677303091,-0.0007369167952864946,0.0021331801968819584,-2.1614019870758057,-0.3336983621120453,-1.5001249313354492,-0.04290044271543847,0.003543124430989142,0.9546505812531763,-10.786330107194964,8.39169373509732,4.691142867828801,0.0009308422677303091,-0.0007369167952864946,0.0021331801968819584,0.329284946392771,-0.013823110672051603,0.020542173925676265,-0.3788515803047692,-0.02804298639099623,0.7877585206716706,0.0,0.0,0.0,0.0,0.0
6.7,0.15275261415977348,-0.22627008814356722,0.0020331948710596453,0.0009308422677303091,-0.0007369167952864946,0.0021331801968819584,-2.1476590633392334,-0.3347017765045166,-1.5006016492843628,-0.05133622281005401,-0.009806186676715845,0.9940946589691455,15.268639918177305,-8.458203652078733,-1.6914121537262767,0.0009308422677303091,-0.0007369167952864946,0.0021331801968819584,0.2725503663003663,0.004771920787545788,0.015138507326007326,-0.20464559235002833,-0.4139656207949657,1.0660121170630135,0.0,0.0,0.0,0.0,0.0
6.75,0.18388107041943597,-0.26080793158336624,0.017662507217600813,0.0009308422677303091,-0.0007369167952864946,0.0021331801968819584,-2.131563186645508,-0.3338851034641266,-1.4997283220291138,-0.0678062433027784,-0.01340768122624314,1.0305494886336124,-22.639069774764994,10.552679897353931,11.014633800887465,0.0009308422677303091,-0.0007369167952864946,0.0021331801968819584,0.31645079648652674,0.024050915587315765,0.03775495012654459,-0.5066633839874537,-0.0252862001625463,0.6023249192781457,0.0,0.0,0.0,0.0,0.0
6.800000000000001,0.22035397398775397,-0.28487773106926695,0.008148033788765257,0.0009308422677303091,-0.0007369167952864946,0.0021331801968819584,-2.117065906524658,-0.33349543809890747,-1.4990745782852173,-0.08043246086238387,-0.022795519002724474,1.0639146828477264,13.74790228037019,-19.527918671442144,0.6896406383643562,0.0009308422677303091,-0.0007369167952864946,0.0021331801968819584,0.35428104851198017,0.0544492778106259,0.03602500211166484,-0.463035373479169,0.10537480173923723,0.5785789367376962,0.0,0.0,0.0,0.0,0.0
6.8500000000000005,0.05164896130302131,-0.31169544470159294,0.009686600272195674,0.0009308422677303091,-0.0007369167952864946,0.0021331801968819584,-2.1035244464874268,-0.33561888337135315,-1.4984397888183594,-0.085593547755626,-0.03145335714848985,1.0930411215515727,-0.40677666589475997,-16.87144290603426,-1.284146079565548,0.0009308422677303091,-0.0007369167952864946,0.0021331801968819584,0.29825691685457606,-0.09757865349511435,0.037904005154085686,-0.11658164739248489,-0.31334820491046744,0.7427830458208191,0.0,0.0,0.0,0.0,0.0
6.9,0.1726496834065689,-0.20235835454284437,-0.02614853931073456,0.0009308422677303091,-0.0007369167952864946,0.0021331801968819584,-2.090217113494873,-0.3344423770904541,-1.497953176498413,-0.09319252419088642,-0.03902121326238883,1.118971777230814,4.29746676450182,-0.08987281268616051,-5.530203064923104,0.0009308422677303091,-0.0007369167952864946,0.0021331801968819584,0.2588967713913421,0.0664289850875923,-0.00046329810337338934,-0.13973706500073219,-0.13120678993980495,0.5575650884497351,0.0,0.0,0.0,0.0,0.0
6.95,0.17016133710413023,-0.3175039190544172,-0.01614163922155656,0.0009308422677303091,-0.0007369167952864946,0.0021331801968819584,-2.078496217727661,-0.3361998200416565,-1.4984601736068726,-0.09101726939418642,-0.05130542535875171,1.1392995146501246,7.277434411965575,-15.130132294899767,-0.35774553086764277,0.0009308422677303091,-0.0007369167952864946,0.0021331801968819584,0.35933955491744435,0.02091170136396267,0.021493180186647524,-0.1770511376867385,0.11945632814850234,0.5106059140005474,0.0,0.0,0.0,0.0,0.0
7.0,0.12289096133930061,-0.16400163995129705,-0.019917804961066002,0.0009308422677303091,-0.0007369167952864946,0.0021331801968819584,-2.064920425415039,-0.3366187512874603,-1.4977710247039795,-0.09213063436687596,-0.052181475521623,1.1595718397049026,5.230741089165582,19.716669284310377,-1.266516124863944,0.0009308422677303091,-0.0007369167952864946,0.0021331801968819584,0.20052680771518397,0.04670815985498626,0.0016710567309598664,-0.14642007408378907,-0.1296162076808157,0.17582225134606727,0.0,0.0,0.0,0.0,0.0
7.050000000000001,0.07276137334952217,-0.25954095011727796,-0.011838776937311044,0.0009308422677303091,-0.0007369167952864946,0.0021331801968819584,-2.0519535541534424,-0.3364141583442688,-1.496878981590271,-0.09185863088181012,-0.05411772818287641,1.1777049805178077,-3.38968801130545,2.1171736553503515,-2.0145113062510664,0.0009308422677303091,-0.0007369167952864946,0.0021331801968819584,0.2673190689445458,-0.032900011057665726,0.01593686072870017,0.078688287057041,0.0890406378718753,0.2728352104678487,0.0,0.0,0.0,0.0,0.0
7.1000000000000005,0.07495650576338844,-0.25763959640061623,-0.029793347534411256,0.0009308422677303091,-0.0007369167952864946,0.0021331801968819584,-2.040107011795044,-0.3367913067340851,-1.4958021640777588,-0.08843527767667814,-0.057099054065330446,1.189153810909099,-10.363542672311137,-11.172622705658606,-3.2318626533127808,0.0009308422677303091,-0.0007369167952864946,0.0021331801968819584,0.2686299799369447,-0.02674476927486386,-0.0026332760103181425,0.06400116662275687,-0.017631688599774226,-0.013942324578832524,0.0,0.0,0.0,0.0,0.0
7.15,0.16091247592370775,-0.2999528693212604,0.016107930734923392,0.0009308422677303091,-0.0007369167952864946,0.0021331801968819584,-2.026380777359009,-0.3351379632949829,-1.494321584701538,-0.08425071432437115,-0.05275562231100506,1.2044662849679035,6.028723640871574,-9.479843363424836,4.339541554185566,0.0009308422677303091,-0.0007369167952864946,0.0021331801968819584,0.33456891016286266,0.041419794524546145,0.04971980619928784,0.01646404357487969,0.42609118996699075,0.21335908323389383,0.0,0.0,0.0,0.0,0.0
7.2,0.20686040342307555,-0.23584965653208403,0.013853631922476748,0.0009308422677303091,-0.0007369167952864946,0.0021331801968819584,-2.0131633281707764,-0.33327582478523254,-1.4928675889968872,-0.07991090755151298,-0.047337452487141496,1.2129234969977762,-10.616182203096283,-0.38670613345904203,-0.3132033541382125,0.0009308422677303091,-0.0007369167952864946,0.0021331801968819584,0.29100388829975254,0.1101279898668552,0.04238835866619536,-0.07244757283078442,0.15711015223007954,0.19117480452875094,0.0,0.0,0.0,0.0,0.0
7.25,-0.003950814024926577,-0.2922325915709556,0.043334445802241654,0.0009308422677303091,-0.0007369167952864946,0.0021331801968819584,-2.0005593299865723,-0.33339324593544006,-1.490967035293579,-0.06935518514173644,-0.039421877050950016,1.2203305838233716,-20.0802510409933,-3.926840762073185,5.060553567823599,0.0009308422677303091,-0.0007369167952864946,0.0021331801968819584,0.2687738586043671,-0.10511910215300045,0.06327683615819209,0.4826272566975583,0.2709347871336548,0.20875646470805437,0.0,0.0,0.0,0.0,0.0
7.300000000000001,0.07622269902588971,-0.13497514447853395,0.043974344747550555,0.0009308422677303091,-0.0007369167952864946,0.0021331801968819584,-1.9884153604507446,-0.3333144187927246,-1.4888317584991455,-0.05770802436570488,-0.03207592493430056,1.2264110596959528,-2.289163959299595,16.654708592210135,4.449716447748994,0.0009308422677303091,-0.0007369167952864946,0.0021331801968819584,0.14961228968544257,0.02551207022677396,0.05410387710314558,0.240388910748506,-0.07671784967050534,0.033825392207265687,0.0,0.0,0.0,0.0,0.0
7.3500000000000005,0.011359672933192105,-0.19380713190445853,0.03809667760860943,0.0009308422677303091,-0.0007369167952864946,0.0021331801968819584,-1.9755058288574219,-0.33398690819740295,-1.486694574356079,-0.04545062987032589,-0.021577319683212748,1.2306624880004975,-4.71484456410242,3.1139386863047753,1.73387518393211,0.0009308422677303091,-0.0007369167952864946,0.0021331801968819584,0.18433502924254672,-0.054259188816508964,0.04709714231372736,0.26474813874609887,0.15921786575581298,-0.03683511189197792,0.0,0.0,0.0,0.0,0.0
7.4,0.08617457184600244,-0.147366437050166,0.04332324557409356,0.0009308422677303091,-0.0007369167952864946,0.0021331801968819584,-1.9629753828048706,-0.33227285742759705,-1.4842106103897095,-0.04203592471095785,-0.01069800545846955,1.2301675023523293,-3.4056716642652516,16.310664908823934,-1.3109347863701186,0.0009308422677303091,-0.0007369167952864946,0.0021331801968819584,0.16567148169336385,0.03213940932494279,0.05039688215102975,0.1372581018152667,-0.11122901130785198,-0.3357232645005084,0.0,0.0,0.0,0.0,0.0
7.45,0.07619721264590638,-0.1695599221328533,0.0392830902782152,0.0009308422677303091,-0.0007369167952864946,0.0021331801968819584,-1.9509048461914062,-0.3320126235485077,-1.4825294017791748,-0.03321281345156901,-0.001956662482944127,1.2290762778206519,-6.727051589494885,18.273670887910903,3.115959292821966,0.0009308422677303091,-0.0007369167952864946,0.0021331801968819584,0.18394359228104898,0.015356121831876408,0.0450409588212656,0.10364030367473652,0.06933581493561435,-0.22286424633524946,0.0,0.0,0.0,0.0,0.0
7.5,0.13662110248133857,-0.23928437845439693,0.048374235937558976,0.0009308422677303091,-0.0007369167952864946,0.0021331801968819584,-1.9377453327178955,-0.33094707131385803,-1.4813156127929688,-0.027835734404722867,0.008436659632556465,1.2281441878344612,4.685081769495844,2.075576036335977,2.4024488477406725,0.0009308422677303091,-0.0007369167952864946,0.0021331801968819584,0.2700757575757576,0.04919871794871795,0.05386072261072261,-0.03021083203771766,0.10455668775914541,0.054907201423737416,0.0,0.0,0.0,0.0,0.0
7.550000000000001,0.1761709111130602,-0.21964031707011816,0.046402400478329,0.0009308422677303091,-0.0007369167952864946,0.0021331801968819584,-1.9247448444366455,-0.3291172385215759,-1.479783535003662,-0.02873981313822327,0.01959626122287461,1.2234923942495914,14.502909164504707,3.741515081822455,1.7451978258297225,0.0009308422677303091,-0.0007369167952864946,0.0021331801968819584,0.26548949485918644,0.09231858143346744,0.049232603188794515,-0.23080689101293295,0.1300903046461753,0.10744098027191935,0.0,0.0,0.0,0.0,0.0
7.6000000000000005,0.11077919249388021,-0.1517315258688333,-0.02582710945231475,0.0009308422677303091,-0.0007369167952864946,0.0021331801968819584,-1.9128018617630005,-0.32850974798202515,-1.479972004890442,-0.022720103618724785,0.024088517900274775,1.215749705810996,5.032225008756299,25.17266874587432,-0.30094239301272363,0.0009308422677303091,-0.0007369167952864946,0.0021331801968819584,0.1810936182175991,0.05039710430137757,-0.025035141973573236,0.11048893632918663,-0.09535671870321316,-0.1996960864834632,0.0,0.0,0.0,0.0,0.0
7.65,0.11147338456610752,-0.2893493885018551,-0.03811296948121661,0.0009308422677303091,-0.0007369167952864946,0.0021331801968819584,-1.8994544744491577,-0.3277059495449066,-1.4798390865325928,-0.02114151175904455,0.0313392351624302,1.2097443250476303,-2.553496513183731,-2.0043638008756086,-8.952323447066558,0.0009308422677303091,-0.0007369167952864946,0.0021331801968819584,0.31039258188824664,0.0008203877649325626,-0.03546483622350674,0.15918817099656862,0.1292011489325,-0.08250953000869246,0.0,0.0,0.0,0.0,0.0
7.7,0.1073981622592827,-0.19597317589344174,-0.01939228958791271,0.0009308422677303091,-0.0007369167952864946,0.0021331801968819584,-1.8878499269485474,-0.3258908987045288,-1.479304313659668,-0.025229495077801367,0.03277466201443091,1.19913572166314,-1.9001350643368027,1.1233395422696637,-4.459205771445273,0.0009308422677303091,-0.0007369167952864946,0.0021331801968819584,0.22180115273775217,0.028245677233429394,-0.017953890489913544,0.039454730154157375,-0.044649803441001765,-0.20097329177209297,0.0,0.0,0.0,0.0,0.0
7.75,0.03631135841490235,-0.18937067556485956,-0.0030485780243447026,0.0009308422677303091,-0.0007369167952864946,0.0021331801968819584,-1.875608205795288,-0.32485949993133545,-1.478794813156128,-0.03080694033843967,0.032510269028258154,1.185987916933092,-10.894996719759192,8.420816118745513,-1.9879610090225182,0.0009308422677303091,-0.0007369167952864946,0.0021331801968819584,0.1891832229580574,-0.03736571008094187,0.001604120676968359,-0.010646791252046494,-0.2140379357368653,-0.43337579154930983,0.0,0.0,0.0,0.0,0.0
7.800000000000001,0.09313944458115976,-0.3296968980646868,-0.03195594995682727,0.0009308422677303091,-0.0007369167952864946,0.0021331801968819584,-1.863871455192566,-0.3241235911846161,-1.4795063734054565,-0.03203491158625482,0.0298250861561844,1.1729527142968,-10.228075069956038,-21.046569477975613,2.9516600469092094,0.0009308422677303091,-0.0007369167952864946,0.0021331801968819584,0.34055682707071877,-0.04282672306399745,-0.024147521511139438,0.00569956805626625,0.1342186054525285,-0.3134006300440494,0.0,0.0,0.0,0.0,0.0
7.8500000000000005,0.09033825008786736,-0.3144290905722556,-0.006359146780191091,0.0009308422677303091,-0.0007369167952864946,0.0021331801968819584,-1.850740909576416,-0.3235416114330292,-1.4804813861846924,-0.03487892428810957,0.02777881096569157,1.1617013410767445,1.1249956086762536,-4.1854234371111625,1.2183273257192557,0.0009308422677303091,-0.0007369167952864946,0.0021331801968819584,0.3244825124910778,-0.0421163454675232,0.0020985010706638116,-0.1006469411366778,0.1174378276507581,-0.3120913701726231,0.0,0.0,0.0,0.0,0.0
7.9,0.18284349602509578,-0.25373481869495434,0.0006724575394980514,0.0009308422677303091,-0.0007369167952864946,0.0021331801968819584,-1.8398939371109009,-0.3229677081108093,-1.4801758527755737,-0.04329608390966433,0.018639642522846778,1.1436793536784524,6.798058505623799,-13.83868580912435,4.137291651889617,0.0009308422677303091,-0.0007369167952864946,0.0021331801968819584,0.3065168081889031,0.06158761777364197,0.00824415493776899,-0.3000238985527921,-0.0966995833205995,-0.14584099193266867,0.0,0.0,0.0,0.0,0.0
7.95,0.14180428005691817,-0.23342268117025775,-0.020884292946911836,0.0009308422677303091,-0.0007369167952864946,0.0021331801968819584,-1.8285099267959595,-0.3215884566307068,-1.481065034866333,-0.05119956780654755,0.00873816941595762,1.1249748688672945,2.1848139290665074,-11.980646442057093,-0.794217857833714,0.0009308422677303091,-0.0007369167952864946,0.0021331801968819584,0.2724055224055224,0.026888089388089387,-0.01014976014976015,-0.17600995981203885,-0.17398758702270178,-0.24579169137338644,0.0,0.0,0.0,0.0,0.0
8.0,0.13332414581089957,-0.18334832845485427,-0.03281161871451611,0.0009308422677303091,-0.0007369167952864946,0.0021331801968819584,-1.8171710968017578,-0.3199079632759094,-1.4819154739379883,-0.05982413897320926,-0.0014425593637685807,1.1043046942360686,-2.375488634884652,3.3799842044623634,-0.6257922389031126,0.0009308422677303091,-0.0007369167952864946,0.0021331801968819584,0.22519441448600783,0.035909916557870236,-0.021598456036782652,-0.05319486758589496,-0.22815099926807103,-0.37896082686562627,0.0,0.0,0.0,0.0,0.0
8.05,0.15478356933495002,-0.21425137232885427,-0.014739519985266571,0.0009308422677303091,-0.0007369167952864946,0.0021331801968819584,-1.8051886558532715,-0.3189292550086975,-1.4826936721801758,-0.06763607918520531,-0.011847609435569728,1.0831970374839592,7.2595132022410445,-3.245121728288096,3.3041746737444897,0.0009308422677303091,-0.0007369167952864946,0.0021331801968819584,0.262243078092565,0.03612256234833202,0.00160804607782943,-0.17185093597785753,-0.26338371087893947,-0.41059797596211123,0.0,0.0,0.0,0.0,0.0
8.1,0.14492650517202932,-0.177879091364156,-0.03086013823815198,0.0009308422677303091,-0.0007369167952864946,0.0021331801968819584,-1.7938413619995117,-0.3175274729728699,-1.4837744235992432,-0.07778291649952163,-0.023054884579095436,1.0587959408094694,4.457398403500531,-1.8273403817327085,0.6287006157643833,0.0009308422677303091,-0.0007369167952864946,0.0021331801968819584,0.22786579683131408,0.038590768627066264,-0.013599352528572129,-0.24573557461070272,-0.086065096499621,-0.42678299502322914,0.0,0.0,0.0,0.0,0.0
8.15,0.12019435765828375,-0.20938186256609503,-0.038230700876799854,0.0009308422677303091,-0.0007369167952864946,0.0021331801968819584,-1.7823282480239868,-0.31649887561798096,-1.4848849773406982,-0.08471167506238553,-0.035719784143390276,1.0332052092224178,-0.04849861893710683,-2.8247950365055465,2.647659785804399,0.0009308422677303091,-0.0007369167952864946,0.0021331801968819584,0.24386208526605016,-0.004690223653499572,-0.01607232546459066,-0.10110947181040264,-0.19212086109908028,-0.5140198955871105,0.0,0.0,0.0,0.0,0.0
8.200000000000001,0.14985607864047268,-0.15945629453486387,-0.060113005428037485,0.0009308422677303091,-0.0007369167952864946,0.0021331801968819584,-1.7707880735397339,-0.31479424238204956,-1.4862823486328125,-0.09235782888539568,-0.047025058966320143,1.0058104257141194,4.348023678112249,5.944374520894804,-1.3444279066612925,0.0009308422677303091,-0.0007369167952864946,0.0021331801968819584,0.22006583655359954,0.04024259338772005,-0.03805639043938743,-0.10664101830923978,-0.19174972476203891,-0.5566458331481,0.0,0.0,0.0,0.0,0.0
8.25,0.14675959278005826,-0.17870318806817012,-0.0722397639990504,0.0009308422677303091,-0.0007369167952864946,0.0021331801968819584,-1.758753776550293,-0.31306561827659607,-1.4875441789627075,-0.09886234710576325,-0.055708936225992156,0.9765216873045439,-3.5452825153920995,1.308444998041856,-4.296077883713489,0.0009308422677303091,-0.0007369167952864946,0.0021331801968819584,0.23698576171984917,0.020351454780798018,-0.04599302155439248,-0.03551083162488376,-0.1343325817944365,-0.604146018719697,0.0,0.0,0.0,0.0,0.0
8.3,0.18533301645982578,-0.14799017158781436,-0.043511975187148715,0.0009308422677303091,-0.0007369167952864946,0.0021331801968819584,-1.7485787868499756,-0.3118749260902405,-1.4894219636917114,-0.10118465050077541,-0.06798694119702531,0.9443680759591793,12.026667080940763,-8.847935972785455,7.492230687074263,0.0009308422677303091,-0.0007369167952864946,0.0021331801968819584,0.23236836389587018,0.062463154302026126,-0.015684631853299824,-0.2149499310610244,-0.15905597095820648,-0.6362612749564601,0.0,0.0,0.0,0.0,0.0
8.35,0.14483006706052365,-0.13408584832590542,-0.05022239261244109,0.0009308422677303091,-0.0007369167952864946,0.0021331801968819584,-1.7370755672454834,-0.31053781509399414,-1.4901399612426758,-0.10105901388262062,-0.07064461164826596,0.910519471187798,-4.351049033152556,0.28797333628482663,-0.7988542668683972,0.0009308422677303091,-0.0007369167952864946,0.0021331801968819584,0.19955093625554268,0.03120851808964329,-0.026124777586352982,-0.03533290641204368,-0.051201641262188895,-0.8002988978640454,0.0,0.0,0.0,0.0,0.0
8.4,0.15962418903475503,-0.16757469623214646,-0.005060720060295395,0.0009308422677303091,-0.0007369167952864946,0.0021331801968819584,-1.7257599830627441,-0.3095836937427521,-1.4908689260482788,-0.09766480619036999,-0.07402852755155243,0.8762015288480232,-2.3171387824667766,-2.392455232220302,8.074127230450639,0.0009308422677303091,-0.0007369167952864946,0.0021331801968819584,0.2298718025519679,0.014598184867908703,0.023078535913257054,0.022269377998308304,-0.07704418001585778,-0.7417485701845354,0.0,0.0,0.0,0.0,0.0
8.450000000000001,0.154425379451365,-0.10825823579373353,-0.03154188204499295,0.0009308422677303091,-0.0007369167952864946,0.0021331801968819584,-1.7151433229446411,-0.3081122934818268,-1.4916396141052246,-0.09291502320645728,-0.07717958313814344,0.8389918126771576,-2.8427450280291735,1.551434421194558,-1.2208713898360914,0.0009308422677303091,-0.0007369167952864946,0.0021331801968819584,0.1863531448355453,0.04178808424697057,-0.009391229082515868,0.07653162635312524,-0.20692608993800343,-0.7591536960584437,0.0,0.0,0.0,0.0,0.0
8.5,0.13531225994038606,-0.13809187709642065,-0.04943997388172539,0.0009308422677303091,-0.0007369167952864946,0.0021331801968819584,-1.7033485174179077,-0.3057730793952942,-1.4909472465515137,-0.09164092862492579,-0.0706123163513066,0.7994760983895155,-15.216552345250983,0.4556382697638077,-4.98929336429399,0.0009308422677303091,-0.0007369167952864946,0.0021331801968819584,0.19772768368392502,-0.00038424446989331567,-0.026957386534868302,0.24322611942562178,-0.007197525843834898,-0.9610202844632961,0.0,0.0,0.0,0.0,0.0
8.55,0.17526228037114586,-0.10803280278888634,-0.00757461192969679,0.0009308422677303091,-0.0007369167952864946,0.0021331801968819584,-1.6937859058380127,-0.30463454127311707,-1.491310477256775,-0.0805577287202639,-0.0680709745745145,0.7560560066701658,0.9143826748987471,2.455344260574887,1.745682951902644,0.0009308422677303091,-0.0007369167952864946,0.0021331801968819584,0.20145424692878294,0.041120591081009766,0.013061834813967808,0.18628346176522728,0.09811692666552924,-0.8517276983913812,0.0,0.0,0.0,0.0,0.0
8.6,0.2356907873841045,-0.138287203597009,-0.001577787300848567,0.0009308422677303091,-0.0007369167952864946,0.0021331801968819584,-1.6823030710220337,-0.30314871668815613,-1.4901703596115112,-0.07428736972968109,-0.05646295856873906,0.7134476843377264,7.138191725795186,2.4373862720923336,-1.3924683991140234,0.0009308422677303091,-0.0007369167952864946,0.0021331801968819584,0.26788170563961483,0.049319275978491936,0.021976991371764412,0.20545318477846589,0.3802725318686812,-0.9563490525910548,0.0,0.0,0.0,0.0,0.0
8.65,0.1830733301287045,-0.11600495175083585,-0.04177024087458707,0.0009308422677303091,-0.0007369167952864946,0.0021331801968819584,-1.6721333265304565,-0.3017749488353729,-1.489762544631958,-0.06417584826753497,-0.045069911742495306,0.6658554410395441,-2.94383599888677,-2.316525369001388,-7.482021848466197,0.0009308422677303091,-0.0007369167952864946,0.0021331801968819584,0.21820113941612304,0.020784750715824897,-0.025961566844761932,0.3617408033948074,0.31371940587287317,-1.0601913436640709,0.0,0.0,0.0,0.0,0.0
8.700000000000001,0.18060697629385708,-0.1202972989429954,0.019175024203426105,0.0009308422677303091,-0.0007369167952864946,0.0021331801968819584,-1.6627095937728882,-0.30082041025161743,-1.4892194271087646,-0.05213982419435714,-0.03497717916782417,0.6172738449800264,-2.842705387944745,4.013097154588417,2.340404692122593,0.0009308422677303091,-0.0007369167952864946,0.0021331801968819584,0.21541947109014786,0.006810111823626053,0.03171869203455403,0.18337600548923957,0.2989777116395132,-0.8103802958013248,0.0,0.0,0.0,0.0,0.0
8.75,0.14265142652216858,-0.11585338622119076,-0.012466873749961084,0.0009308422677303091,-0.0007369167952864946,0.0021331801968819584,-1.6525369882583618,-0.3000016212463379,-1.4882843494415283,-0.04001899824072108,-0.01997428625517772,0.5685170956449843,-8.61222629669085,0.3486437512030989,-4.041317889374161,0.0009308422677303091,-0.0007369167952864946,0.0021331801968819584,0.1829121540312876,-0.021101942582086985,-0.004971061830267606,0.4457459590748349,0.3741191852727116,-1.051101353180967,0.0,0.0,0.0,0.0,0.0
8.8,0.2516227061137376,-0.0905455351651619,0.0413595233374989,0.0009308422677303091,-0.0007369167952864946,0.0021331801968819584,-1.642093300819397,-0.2988067865371704,-1.4871978759765625,-0.029930392465956857,-0.003614799158896398,0.5178971652171853,7.460335087205534,2.2563345471391054,2.2697794569579393,0.0009308422677303091,-0.0007369167952864946,0.0021331801968819584,0.26267778467725245,0.04692628404151512,0.04495993376504332,0.06906314570564805,0.463126171436157,-0.9510088933389385,0.0,0.0,0.0,0.0,0.0
8.85,0.18291779751557388,-0.030709650855051576,0.0016814285839393144,0.0009308422677303091,-0.0007369167952864946,0.0021331801968819584,-1.6329385042190552,-0.29763561487197876,-1.4865741729736328,-0.019299438825482795,0.012508837953557617,0.4641029723757413,3.7605707978175644,7.730225459377131,-0.4346666647999786,0.0009308422677303091,-0.0007369167952864946,0.0021331801968819584,0.17731121579053838,0.05445698349854059,-1.4449614195300986e-05,0.17261574801643345,0.29983764607666546,-1.0189753419884648,0.0,0.0,0.0,0.0,0.0
8.9,0.22180829889446685,-0.11842465076741267,0.00331557300365192,0.0009308422677303091,-0.0007369167952864946,0.0021331801968819584,-1.6232571601867676,-0.2971935272216797,-1.4858366250991821,-0.009911807723077093,0.028407044994214203,0.409249532203269,12.71122965733615,-6.797893181192838,-2.5341480481446497,0.0009308422677303091,-0.0007369167952864946,0.0021331801968819584,0.2506344410876133,-0.020332326283987914,-0.0018126888217522659,0.34521939589687944,0.42186934938599907,-1.6466801462759904,0.0,0.0,0.0,0.0,0.0
8.950000000000001,0.18855947068534573,-0.03831655478348287,0.025288256846255727,0.0009308422677303091,-0.0007369167952864946,0.0021331801968819584,-1.6143029928207397,-0.2956530749797821,-1.4854402542114258,-0.004585150074146949,0.04222530917797429,0.3523741236087101,6.08574955578224,-3.306257219443006,2.6065809372970006,0.0009308422677303091,-0.0007369167952864946,0.0021331801968819584,0.1910086417309849,0.02953690876706907,0.017481364206082196,0.052638789629292755,0.24425200012947662,-1.4106069726508093,0.0,0.0,0.0,0.0,0.0
9.0,0.22505285974183536,-0.019390662350744773,-0.00041576125681866817,0.0009308422677303091,-0.0007369167952864946,0.0021331801968819584,-1.6044974327087402,-0.29477888345718384,-1.485167384147644,-0.0006517887469037476,0.05697240526044722,0.2949304378759612,7.9251702112402995,3.9389255474565807,-4.575196986757256,0.0009308422677303091,-0.0007369167952864946,0.0021331801968819584,0.22060069174842944,0.046750370579515775,-0.013217336062680878,0.018337528942004418,0.22841754451039353,-1.397360150011185,0.0,0.0,0.0,0.0,0.0
9.05,0.19002734305920413,-0.017867450254669005,0.0033136973433968713,0.0009308422677303091,-0.0007369167952864946,0.0021331801968819584,-1.5957555770874023,-0.29391545057296753,-1.4852542877197266,0.002004081810506708,0.06741979666915765,0.23545506678922123,4.24676927818339,4.340775997801625,3.9107368735498986,0.0009308422677303091,-0.0007369167952864946,0.0021331801968819584,0.18874885163068442,0.026900551217271473,-0.00953146531924667,-0.05978916157328994,0.19873517847291186,-1.1521814497202494,0.0,0.0,0.0,0.0,0.0
9.1,0.20823684168373222,-0.034687232885615135,-0.007508439285888751,0.0009308422677303091,-0.0007369167952864946,0.0021331801968819584,-1.5870834589004517,-0.2923128604888916,-1.485494613647461,0.00011993408065835709,0.07477704174225708,0.17405766146176305,0.49648422811220155,-7.709153477928123,-4.088678381483802,0.0009308422677303091,-0.0007369167952864946,0.0021331801968819584,0.20997150997150998,0.0017022792022792022,-0.02304843304843305,0.12020329713508317,0.28649994455527333,-1.293969531723874,0.0,0.0,0.0,0.0,0.0
9.15,0.13703246484591428,0.03835929470454343,0.011096652768736828,0.0009308422677303091,-0.0007369167952864946,0.0021331801968819584,-1.5784876346588135,-0.29075515270233154,-1.4857771396636963,-0.004706861653503758,0.07839728893674791,0.11255322305992177,-10.231579808109679,7.418647023188012,-2.0641104654507,0.0009308422677303091,-0.0007369167952864946,0.0021331801968819584,0.1322824969277456,0.05360770446166579,0.00015047776690993905,-0.19092819427769278,-0.056207715956696436,-1.0899148878704468,0.0,0.0,0.0,0.0,0.0
9.200000000000001,0.21376802248057136,0.020820932069137574,0.01931882274709149,0.0009308422677303091,-0.0007369167952864946,0.0021331801968819584,-1.5700451135635376,-0.2890726327896118,-1.4862263202667236,-0.01136390188894243,0.07942849292598764,0.048776241597459524,1.4752877798284907,2.0389562302888082,1.930928323237308,0.0009308422677303091,-0.0007369167952864946,0.0021331801968819584,0.21332699674529795,0.0314777211325211,0.0020593911114951467,-0.1853449481101839,0.13722622662820974,-1.252646719014794,0.0,0.0,0.0,0.0,0.0
9.25,0.18467157925557592,-0.01872014267433084,-0.03637384893013938,0.0009308422677303091,-0.0007369167952864946,0.0021331801968819584,-1.5620927810668945,-0.2875547409057617,-1.4873263835906982,-0.01889639142137156,0.07483406228139078,-0.015119885214465167,4.79512727546245,-4.971793224916442,-2.9902398151596055,0.0009308422677303091,-0.0007369167952864946,0.0021331801968819584,0.18114807752511597,-0.022145459202550018,-0.04971966872527535,-0.06578911328957295,-0.07956554685032369,-1.1895798804482767,0.0,0.0,0.0,0.0,0.0
9.3,0.17911969730662708,0.045317133710680135,0.009826468269543333,0.0009308422677303091,-0.0007369167952864946,0.0021331801968819584,-1.5532863140106201,-0.28588759899139404,-1.487894892692566,-0.027541201258826753,0.07181160953665411,-0.08156521639652592,2.7015216600163487,2.6521133664103167,3.8499299824955378,0.0009308422677303091,-0.0007369167952864946,0.0021331801968819584,0.1823901255280266,0.03081278648251895,-0.00429911021899997,-0.15784480660053807,-0.1401360335004331,-1.3587080219617067,0.0,0.0,0.0,0.0,0.0
9.35,0.1902811378802649,0.09330709710987393,0.020239257856901886,0.0009308422677303091,-0.0007369167952864946,0.0021331801968819584,-1.5447940826416016,-0.28374558687210083,-1.4887396097183228,-0.039186562754470966,0.0655329454111695,-0.14864131951173398,1.7461918308924331,0.19297461760530873,3.625969625303331,0.0009308422677303091,-0.0007369167952864946,0.0021331801968819584,0.20277712678696977,0.06471174127021326,0.004071947504101242,-0.32684019834687356,-0.024226767305831048,-1.3574694916178156,0.0,0.0,0.0,0.0,0.0
9.4,0.16871648726742977,0.08781323210995085,-0.022416042270124913,0.0009308422677303091,-0.0007369167952864946,0.0021331801968819584,-1.5368725061416626,-0.2819098234176636,-1.4901392459869385,-0.05000217620820102,0.055652884852835705,-0.21589379256374297,-1.82676155451363,4.8433467009959505,-1.1284161867670437,0.0009308422677303091,-0.0007369167952864946,0.0021331801968819584,0.1816376457044179,0.0488055835371996,-0.036120305079867604,-0.2383776982091737,-0.17411689414535667,-1.31899087836904,0.0,0.0,0.0,0.0,0.0
9.450000000000001,0.15018507038500073,0.10044331199255388,-0.03679765115421763,0.0009308422677303091,-0.0007369167952864946,0.0021331801968819584,-1.528874397277832,-0.27976885437965393,-1.491762399673462,-0.059887929855014566,0.043950311830971645,-0.28031879613380717,1.6204148098845266,2.365349739958262,-1.9794077861401227,0.0009308422677303091,-0.0007369167952864946,0.0021331801968819584,0.16950859879120558,0.05324243043592514,-0.049300709509766706,-0.1783609983955788,-0.2459813508682701,-1.342836031447409,0.0,0.0,0.0,0.0,0.0
